{"learner":{"attributes":{"scikit_learn":"{\"n_estimators\": 50, \"objective\": \"reg:linear\", \"max_depth\": 10, \"learning_rate\": 0.3, \"verbosity\": null, \"booster\": null, \"tree_method\": null, \"gamma\": null, \"min_child_weight\": null, \"max_delta_step\": null, \"subsample\": null, \"colsample_bytree\": null, \"colsample_bylevel\": null, \"colsample_bynode\": null, \"reg_alpha\": null, \"reg_lambda\": null, \"scale_pos_weight\": null, \"base_score\": null, \"missing\": NaN, \"num_parallel_tree\": null, \"kwargs\": {}, \"random_state\": null, \"n_jobs\": null, \"monotone_constraints\": null, \"interaction_constraints\": null, \"importance_type\": \"gain\", \"gpu_id\": null, \"validate_parameters\": null, \"_estimator_type\": \"regressor\"}"},"feature_names":[],"feature_types":[],"gradient_booster":{"model":{"gbtree_model_param":{"num_trees":"50","size_leaf_vector":"0"},"tree_info":[0,0,0,0,0,0,0,0,0,0,0,0,0,0,0,0,0,0,0,0,0,0,0,0,0,0,0,0,0,0,0,0,0,0,0,0,0,0,0,0,0,0,0,0,0,0,0,0,0,0],"trees":[{"base_weights":[-3.041523E-1,-3.217592E-1,-2.6056606E-1,-2.9450557E-1,-3.3966243E-1,-2.8138522E-2,-2.6382214E-1,-3.1278074E-1,-2.66441E-1,-3.614024E-1,-3.2030064E-1,-2.231405E-1,1.694215E-1,-2.6787004E-1,-9.610389E-2,-2.2997299E-1,-3.2351515E-1,-1.868071E-1,-2.79409E-1,-3.6226588E-1,4.5454543E-2,1.3636363E-1,-3.2082266E-1,-2.6767677E-1,-1.5151511E-2,-1.0227273E-1,2.840909E-1,-2.958747E-1,-2.4646592E-1,7.4380174E-2,-1.6727272E-1,-2.4976076E-1,7.142857E-2,-3.2594234E-1,-1.6083916E-1,-2.3994038E-1,-3.0991731E-2,-2.8161028E-1,1.6666667E-1,-3.1150958E-1,-3.6809468E-1,2.5E-1,-1.8181819E-1,-3.417467E-1,-3.087173E-1,-2.840909E-1,-6.818181E-2,-4.5454547E-2,2.272728E-2,3.181818E-1,2.272728E-2,-2.7296278E-1,-3.3658007E-1,-1.6666666E-1,-2.51283E-1,1.5151516E-1,-1.8181817E-1,9.848485E-2,-2.3863636E-1,-1.1212121E-1,-2.721661E-1,-2.0454545E-1,1.5151514E-1,-2.3205741E-1,-3.305667E-1,-2.121212E-1,2.2727272E-1,-2.9201102E-1,-1.724138E-1,9.090909E-2,-1.0714285E-1,-3.0251747E-1,-2.3653734E-1,-3.2930368E-1,-1.875E-1,-3.7542087E-1,-3.233471E-1,-3.0303022E-2,-3.4320986E-1,-2.5252521E-2,-3.1182322E-1,1.0606062E-1,-2.7521306E-1,-3.4437975E-1,-9.659091E-2,-2.4201474E-1,7.954546E-2,-2.528948E-1,-4.5454543E-2,1.875E-1,-6.818181E-2,2.0454545E-1,-7.575757E-2,-0E0,-2.8074867E-1,-2.840909E-1,7.386364E-2,-1.2012987E-1,-2.9946524E-1,1.9318181E-1,4.5454543E-2,-3.080808E-1,-4.1666668E-2,4.5454532E-2,-3.3116883E-1,2.0454547E-1,-2.6859504E-1,-6.3636355E-2,-3.213166E-1,-3.1060606E-1,-1.3068181E-1,-1.590909E-1,1.4204545E-1,-1.9191918E-1,3.7878793E-2,-2.6145753E-1,-3.2527715E-1,-2.4281524E-1,1.6666667E-1,-0E0,-3.328446E-1,-5.0505046E-2,-3.181818E-1,-4.5454547E-2,-3.7579772E-1,-3.364352E-1,7.5757555E-3,-3.1205672E-1,-3.5849056E-1,5.1948052E-2,-1.9696969E-1,-4.545454E-2,-3.1399187E-1,-2.2727266E-2,1.8181819E-1,1.13636374E-1,-2.7652505E-1,-9.0909086E-2,-3.4772727E-1,-1.4935064E-1,1.3636363E-1,-1.322314E-1,-3.778409E-1,-3.0303031E-2,1.6233768E-1,-2.4698955E-1,-3.2604894E-1,1.4772727E-1,-2.2727272E-1,-2.2727266E-2,-9.090909E-2,1.21212125E-1,-1.8181819E-1,-4.5454543E-2,-3.090909E-1,1.13636374E-1,-3.5714287E-1,1.590909E-1,-1.2121212E-1,-1.5034965E-1,1.3636363E-1,-1.060606E-1,-3.131313E-1,-3.1993008E-1,-0E0,2E-1,-1.875E-1,-3.464922E-1,-3.0933496E-1,2.272728E-2,-2.9999998E-1,2.272728E-2,-9.0909086E-2,-3.4E-1,-1.6363636E-1,-1.9696969E-1,-5.9440557E-2,1.7424242E-1,3.0303022E-2,-2.3484847E-1,-7.954545E-2,-6.818181E-2,1.6666667E-1,-2.85435E-1,-1.7554858E-1,-3.3016735E-1,-6.363637E-2,1.5151514E-1,-2.4896018E-1,-3.3716282E-1,-9.0909086E-2,-1.10389605E-1,1.060606E-1,-3.7775996E-1,-2.799043E-1,-2.2909091E-1,-3.592233E-1,-1.1363637E-1,1.6666667E-1,-3.4430513E-1,-2.553719E-1,-3.241506E-1,-3.7670115E-1,1.0909091E-1,-6.0606062E-2,-2.2727272E-1,1.4772728E-1,-3.0597925E-1,-3.50864E-1,-2.776059E-1,6.818181E-2,1.13636374E-1,-1.969697E-1,-2.6555023E-1,-3.543956E-1,-3.4090906E-2,-2.2727272E-1,1.2727273E-1,-1.9696969E-1,-3.9393938E-1,-6.818181E-2,-1.5151514E-1,6.818181E-2,2.0000002E-1,4.5454543E-2,-2.7828923E-1,-2.2999395E-1,-4.5454547E-2,-3.3065954E-1,2.5757575E-1,-9.090909E-2,-2.5757575E-1,-6.818181E-2,1.590909E-1,2.272728E-2,-3.2467532E-1,-4.5454547E-2,-6.818181E-2,-3.9393938E-1,2.2727273E-2,2.8787878E-1,-2.2727266E-2,-1.590909E-1,-6.4935066E-2,-2.142857E-1,-1.5454546E-1,6.818181E-2,-3.228043E-1,-1.3636363E-1,-3.3090907E-1,-2.2727266E-2,2.8787878E-1,4.5454543E-2,-3.181818E-1,2.2727273E-2,-3.4758028E-1,4.5454532E-2,-7.438016E-2,-3.1723484E-1,-2.2727266E-2,-1.060606E-1,-1.8181817E-1,-3.7045455E-1,-2.2727272E-1,4.5454532E-2,3.0303022E-2,-2.4545453E-1,-1.6666667E-1,2.8409097E-2,-0E0,2.0909092E-1,-0E0,4.5454532E-2,-6.818181E-2,-2.5454545E-1,-9.090909E-2,-2.2727266E-2,-9.0909086E-2,-0E0,-2.3712121E-1,-3.6229947E-1,7.575759E-2,-2.3106061E-1,4.5454532E-2,-3.3227274E-1,4.5454532E-2,-1.0227273E-1,2.2727272E-1,-0E0,-3.0610794E-1,-2.0555556E-1,-3.3989897E-1,-4.5454547E-2,-1.1363636E-1,-2.2727266E-2,2.272728E-2,-1.3636363E-1,1.13636374E-1,-3.080808E-1,-2.9946524E-1,-7.0707075E-2,-1.7272727E-1,-3.6501378E-1,4.5454532E-2,-1.8181817E-1,-3.488372E-1,2.272728E-2,-2.8787878E-1,-1.3961038E-1,-3.459893E-1,-1.7878787E-1,2.272728E-2,1.25E-1,-4.5454547E-2,-2.7272728E-1,1.8181819E-1,2.272728E-2,-3.1688026E-1,-2.6923075E-1,-3.5340908E-1,-2.2727266E-2,-3.0192992E-1,-2.5490195E-1,-3.060606E-1,-9.0909086E-2,-2.2727273E-1,-3.5969523E-1,-0E0,-4.5454543E-2,-2.2727266E-2,-2.8787878E-1,-9.090909E-2,2.0454545E-1,-2.4147727E-1,1.060606E-1,9.0909086E-2,-0E0,-9.7402595E-2,-2.8256592E-1,2.2727272E-1,-2.3151515E-1,-3.5254988E-1,-2.1900827E-1,-2.2727266E-2,4.5454543E-2,-9.090906E-3,-1.3636364E-1,-2.121212E-1,-4.5454543E-2,-1.6666667E-1,-3.3417508E-1,-2.8787878E-1,6.0606074E-2,-2.1363637E-1,-3.8352272E-1,-0E0,6.818181E-2,9.090909E-2,-3.0303031E-2,-2.9545453E-1,-3.5824814E-1,-2.2727272E-1,1.5454546E-1,-1.25E-1,-3.2157877E-1,-0E0,-2.181818E-1,-6.818181E-2,-2.5757575E-1,4.5454532E-2,-0E0,-4.5454543E-2,-2.8977272E-1,-1.8181819E-1,-4.5454547E-2,9.090909E-2,-1.06060594E-1,-2.7746212E-1,-6.993007E-2,-3.721591E-1,-1.3636364E-1,2.7272728E-1,-9.090908E-2,-2.520661E-1,-9.934108E-9,-3.3439925E-1,4.5454532E-2,1.6666667E-1,-3.240469E-1,-2.2727272E-1,-5.9440557E-2,-3.421859E-1,-6.818181E-2,-2.2727266E-2,-1.5454546E-1,-6.0606062E-2,-3.3522728E-1,-4.5454547E-2,-3.125E-1,1.3636363E-1,-1.4935066E-1,-3.0303031E-2,-2.5757575E-1,-1.7045453E-1,-3.693182E-1,-3.5227272E-1,-1.3636364E-1,-1.4685315E-1,-3.3939394E-1,-1.6783217E-1,1.13636374E-1,-3.5064936E-1,2.272728E-2,-2.4242425E-1,-7.142857E-2,-3.198198E-1,-1.6942148E-1,-1.6363636E-1,-2.9465708E-1,-1.3636363E-1,-3.5780886E-1,-3.1477273E-1,-1.8409091E-1,-1.5151514E-1,-2.6349053E-1,-3.181818E-1,-6.818181E-2,-1.0227273E-1,-2.2727266E-2,-3.272727E-1,-1.0606061E-1,-4.5454547E-2,-2.5151515E-1,1.590909E-1,-0E0,1.3636363E-1,-2.1818182E-1,-2.8574288E-1,-8.181818E-2,-2.430255E-1,-1.6874221E-1,-3.8636363E-1,-2.755682E-1,-2.8181818E-1,-1.4285713E-1],"categories":[],"categories_nodes":[],"categories_segments":[],"categories_sizes":[],"default_left":[true,true,true,true,true,true,true,true,true,true,true,true,true,true,true,true,true,true,true,true,true,false,true,true,true,false,true,true,true,true,true,true,true,true,true,true,true,true,false,true,true,false,false,true,true,false,false,false,false,false,false,true,true,true,true,true,false,true,true,true,true,false,true,true,true,true,false,true,true,true,true,true,true,true,true,true,true,false,true,true,true,true,true,true,true,true,true,true,true,false,false,false,true,true,true,true,true,true,true,false,false,true,true,false,true,false,true,true,true,false,true,false,true,true,true,true,true,true,false,false,true,true,false,false,true,true,true,true,true,true,false,true,true,false,false,false,true,true,true,true,false,true,true,true,true,true,true,true,true,false,false,true,false,false,true,false,true,true,true,true,false,true,true,true,false,true,true,true,true,false,false,false,true,true,true,true,true,true,true,true,true,true,false,true,true,true,true,true,true,true,true,true,false,false,true,true,true,true,false,true,true,true,false,true,false,true,true,true,true,true,false,false,false,true,true,true,true,true,true,false,false,false,true,false,false,true,true,false,true,false,false,false,false,false,false,false,false,false,false,true,false,false,false,true,false,true,false,true,true,true,false,false,true,false,true,true,false,true,true,false,false,true,false,true,false,true,true,true,true,false,false,false,false,false,false,false,false,false,false,true,true,true,true,false,true,false,false,false,false,true,true,true,false,false,false,false,true,false,true,true,true,true,true,false,false,true,false,true,true,true,true,false,false,false,false,false,false,true,true,true,false,true,true,true,true,true,false,false,false,false,false,false,false,true,true,false,false,true,true,false,true,true,true,false,false,false,false,false,false,false,false,false,false,false,false,false,false,false,false,false,false,false,false,false,false,false,false,false,false,false,false,false,false,false,false,false,false,false,false,false,false,false,false,false,false,false,false,false,false,false,false,false,false,false,false,false,false,false,false,false,false,false,false,false,false,false,false,false,false,false,false,false,false,false,false,false,false,false,false,false,false,false,false,false,false,false,false,false,false,false,false,false,false,false,false,false,false,false,false,false,false,false,false,false,false],"id":0,"left_children":[1,3,5,7,9,11,13,15,17,19,21,23,25,27,29,31,33,35,37,39,41,-1,43,45,47,-1,49,51,53,55,57,59,61,63,65,67,69,71,-1,73,75,-1,-1,77,79,-1,-1,-1,-1,-1,-1,81,83,85,87,89,-1,91,93,95,97,-1,99,101,103,105,-1,107,109,111,113,115,117,119,121,123,125,-1,127,129,131,133,135,137,139,141,143,145,147,-1,-1,-1,149,151,153,155,157,159,161,-1,-1,163,165,-1,167,-1,169,171,173,-1,175,-1,177,179,181,183,185,187,-1,-1,189,191,-1,-1,193,195,197,199,201,203,-1,205,207,-1,-1,-1,209,211,213,215,-1,217,219,221,223,225,227,229,231,-1,-1,233,-1,-1,235,-1,237,239,241,243,-1,245,247,249,-1,251,253,255,257,-1,-1,-1,259,261,263,265,267,269,271,273,275,277,-1,279,281,283,285,287,289,291,293,295,-1,-1,297,299,301,303,-1,305,307,309,-1,311,-1,313,315,317,319,321,-1,-1,-1,323,325,327,329,331,333,-1,-1,-1,335,-1,-1,337,339,-1,341,-1,-1,-1,-1,-1,-1,-1,-1,-1,-1,343,-1,-1,-1,345,-1,347,-1,349,351,353,-1,-1,355,-1,357,359,-1,361,363,-1,-1,365,-1,367,-1,369,371,373,375,-1,-1,-1,-1,-1,-1,-1,-1,-1,-1,377,379,381,383,-1,385,-1,-1,-1,-1,387,389,391,-1,-1,-1,-1,393,-1,395,397,399,401,403,-1,-1,405,-1,407,409,411,413,-1,-1,-1,-1,-1,-1,415,417,419,-1,421,423,425,427,429,-1,-1,-1,-1,-1,-1,-1,431,433,-1,-1,435,437,-1,439,441,443,-1,-1,-1,-1,-1,-1,-1,-1,-1,-1,-1,-1,-1,-1,-1,-1,-1,-1,-1,-1,-1,-1,-1,-1,-1,-1,-1,-1,-1,-1,-1,-1,-1,-1,-1,-1,-1,-1,-1,-1,-1,-1,-1,-1,-1,-1,-1,-1,-1,-1,-1,-1,-1,-1,-1,-1,-1,-1,-1,-1,-1,-1,-1,-1,-1,-1,-1,-1,-1,-1,-1,-1,-1,-1,-1,-1,-1,-1,-1,-1,-1,-1,-1,-1,-1,-1,-1,-1,-1,-1,-1,-1,-1,-1,-1,-1,-1,-1,-1,-1,-1,-1],"loss_changes":[3.7401733E0,1.6296692E0,1.0816193E0,6.413727E-1,7.82074E-1,8.468212E-1,9.376221E-1,6.8115234E-1,5.302429E-1,3.6672974E-1,3.148117E-1,9.7837925E-2,3.7175995E-1,7.572708E-1,4.3710208E-1,6.2021065E-1,2.4371338E-1,6.714406E-1,5.2121353E-1,1.7970276E-1,1.8491736E-1,0E0,1.8223572E-1,1.0100961E-2,4.4765854E-3,0E0,6.40496E-2,4.6304703E-1,2.621765E-1,2.4492861E-1,4.976377E-1,2.6245117E-1,1.8570445E-1,2.4370575E-1,3.069506E-1,1.6413856E-1,2.139637E-1,3.8171005E-1,0E0,1.7877865E-1,1.6939545E-1,0E0,0E0,1.750679E-1,6.3482666E-1,0E0,0E0,0E0,0E0,0E0,0E0,3.584118E-1,3.5982132E-1,9.097283E-1,2.3532867E-1,8.393596E-2,0E0,1.2637742E-1,2.0099056E-1,5.0074035E-1,3.002119E-1,0E0,1.7734155E-2,5.371809E-1,1.7375946E-1,3.3730906E-1,0E0,2.0041013E-1,1.2665349E-1,1.3765496E-1,1.7939131E-1,2.186718E-1,4.378786E-1,1.0960674E-1,2.7037424E-1,7.6919556E-2,5.7426167E-1,0E0,8.092499E-2,1.2954217E-1,4.028015E-1,3.3402205E-2,2.2732353E-1,1.4063263E-1,1.1869096E-1,5.017612E-1,1.14054516E-1,2.3828125E-1,2.7944213E-1,0E0,0E0,0E0,3.443528E-4,1.1019285E-1,9.931934E-2,2.7302247E-1,1.5228993E-1,1.290187E-1,1.465187E-1,0E0,0E0,9.856439E-2,4.6041664E-1,0E0,1.2702179E-1,0E0,1.074568E-1,1.3842978E-2,2.9797554E-2,0E0,1.0163039E-1,0E0,2.3502082E-2,2.4735987E-2,9.331956E-2,1.9913673E-1,2.412796E-1,4.1330814E-1,0E0,0E0,6.65102E-2,9.6090764E-2,0E0,0E0,3.6331177E-2,2.2836876E-1,1.3464189E-1,1.6982079E-1,4.360962E-2,5.1633216E-2,0E0,2.7944216E-1,1.0417938E-1,0E0,0E0,0E0,1.6162682E-1,1.0915979E-1,1.5487671E-2,5.512102E-2,0E0,3.946657E-1,5.2901268E-2,8.195592E-2,2.1723732E-2,3.0144882E-1,5.2242756E-2,1.2827134E-1,1.7217696E-3,0E0,0E0,7.575754E-3,0E0,0E0,4.6871305E-2,0E0,4.756981E-2,9.8829195E-2,7.575758E-3,5.7079256E-2,0E0,6.122589E-2,6.370306E-2,7.731724E-2,0E0,5.482094E-2,2.2701448E-1,1.8766403E-1,5.2952576E-1,0E0,0E0,0E0,1.7217658E-3,5.307865E-2,7.685949E-2,1.3966942E-1,1.2719195E-1,3.6432505E-2,1.3774096E-3,2.3415983E-3,5.165301E-4,6.1983466E-3,0E0,2.594571E-1,4.220695E-1,1.7405891E-1,2.5723137E-2,3.4435257E-2,3.1659126E-1,5.7182312E-2,2.0661168E-3,2.730225E-2,0E0,0E0,2.4569261E-1,2.5747967E-1,4.8182487E-2,5.1652875E-2,0E0,1.5264511E-1,1.667769E-1,2.5242043E-1,0E0,4.028924E-3,0E0,2.0661145E-2,1.291322E-2,1.5343857E-1,9.301853E-2,1.3399887E-1,0E0,0E0,0E0,1.06597066E-1,4.0864944E-2,1.5495867E-3,4.3044075E-2,1.0289256E-1,2.683798E-1,0E0,0E0,0E0,6.1983466E-3,0E0,0E0,1.5581894E-1,3.663292E-1,0E0,4.7436714E-2,0E0,0E0,0E0,0E0,0E0,0E0,0E0,0E0,0E0,0E0,5.1652873E-3,0E0,0E0,0E0,2.668241E-2,0E0,2.1763086E-2,0E0,4.9053192E-2,1.6666666E-1,7.231903E-2,0E0,0E0,3.0991728E-3,0E0,1.7217632E-2,1.1769104E-1,0E0,4.2013523E-1,2.0029831E-1,0E0,0E0,3.966941E-2,0E0,1.7217696E-3,0E0,1.3774096E-3,7.5464845E-2,2.7548075E-3,7.6876715E-2,0E0,0E0,0E0,0E0,0E0,0E0,0E0,0E0,0E0,0E0,3.852756E-1,2.4991035E-2,2.217631E-1,1.1648512E-1,0E0,1.7584991E-1,0E0,0E0,0E0,0E0,5.9679747E-1,2.72079E-1,3.259468E-2,0E0,0E0,0E0,0E0,8.884303E-3,0E0,1.0060835E-1,4.2081952E-2,1.6692902E-1,5.2617088E-2,1.9955635E-2,0E0,0E0,1.473999E-2,0E0,2.5528693E-1,1.1913088E-1,1.540184E-1,8.5163295E-2,0E0,0E0,0E0,0E0,0E0,0E0,1.4260864E-1,3.3572102E-1,6.580162E-2,0E0,2.1294785E-1,1.4121723E-1,2.1556497E-2,1.5495904E-3,8.650142E-2,0E0,0E0,0E0,0E0,0E0,0E0,0E0,2.004987E-2,1.6873278E-2,0E0,0E0,2.2739077E-1,1.23945236E-1,0E0,2.841339E-1,2.5558472E-4,1.2353778E-2,0E0,0E0,0E0,0E0,0E0,0E0,0E0,0E0,0E0,0E0,0E0,0E0,0E0,0E0,0E0,0E0,0E0,0E0,0E0,0E0,0E0,0E0,0E0,0E0,0E0,0E0,0E0,0E0,0E0,0E0,0E0,0E0,0E0,0E0,0E0,0E0,0E0,0E0,0E0,0E0,0E0,0E0,0E0,0E0,0E0,0E0,0E0,0E0,0E0,0E0,0E0,0E0,0E0,0E0,0E0,0E0,0E0,0E0,0E0,0E0,0E0,0E0,0E0,0E0,0E0,0E0,0E0,0E0,0E0,0E0,0E0,0E0,0E0,0E0,0E0,0E0,0E0,0E0,0E0,0E0,0E0,0E0,0E0,0E0,0E0,0E0,0E0,0E0,0E0,0E0,0E0,0E0,0E0,0E0,0E0,0E0,0E0,0E0,0E0,0E0,0E0,0E0],"parents":[2147483647,0,0,1,1,2,2,3,3,4,4,5,5,6,6,7,7,8,8,9,9,10,10,11,11,12,12,13,13,14,14,15,15,16,16,17,17,18,18,19,19,20,20,22,22,23,23,24,24,26,26,27,27,28,28,29,29,30,30,31,31,32,32,33,33,34,34,35,35,36,36,37,37,39,39,40,40,43,43,44,44,51,51,52,52,53,53,54,54,55,55,57,57,58,58,59,59,60,60,62,62,63,63,64,64,65,65,67,67,68,68,69,69,70,70,71,71,72,72,73,73,74,74,75,75,76,76,78,78,79,79,80,80,81,81,82,82,83,83,84,84,85,85,86,86,87,87,88,88,92,92,93,93,94,94,95,95,96,96,97,97,98,98,101,101,102,102,104,104,106,106,107,107,108,108,110,110,112,112,113,113,114,114,115,115,116,116,117,117,120,120,121,121,124,124,125,125,126,126,127,127,128,128,129,129,131,131,132,132,136,136,137,137,138,138,139,139,141,141,142,142,143,143,144,144,145,145,146,146,147,147,148,148,151,151,154,154,156,156,157,157,158,158,159,159,161,161,162,162,163,163,165,165,166,166,167,167,168,168,172,172,173,173,174,174,175,175,176,176,177,177,178,178,179,179,180,180,181,181,183,183,184,184,185,185,186,186,187,187,188,188,189,189,190,190,191,191,194,194,195,195,196,196,197,197,199,199,200,200,201,201,203,203,205,205,206,206,207,207,208,208,209,209,213,213,214,214,215,215,216,216,217,217,218,218,222,222,225,225,226,226,228,228,239,239,243,243,245,245,247,247,248,248,249,249,252,252,254,254,255,255,257,257,258,258,261,261,263,263,265,265,266,266,267,267,268,268,279,279,280,280,281,281,282,282,284,284,289,289,290,290,291,291,296,296,298,298,299,299,300,300,301,301,302,302,305,305,307,307,308,308,309,309,310,310,317,317,318,318,319,319,321,321,322,322,323,323,324,324,325,325,333,333,334,334,337,337,338,338,340,340,341,341,342,342],"right_children":[2,4,6,8,10,12,14,16,18,20,22,24,26,28,30,32,34,36,38,40,42,-1,44,46,48,-1,50,52,54,56,58,60,62,64,66,68,70,72,-1,74,76,-1,-1,78,80,-1,-1,-1,-1,-1,-1,82,84,86,88,90,-1,92,94,96,98,-1,100,102,104,106,-1,108,110,112,114,116,118,120,122,124,126,-1,128,130,132,134,136,138,140,142,144,146,148,-1,-1,-1,150,152,154,156,158,160,162,-1,-1,164,166,-1,168,-1,170,172,174,-1,176,-1,178,180,182,184,186,188,-1,-1,190,192,-1,-1,194,196,198,200,202,204,-1,206,208,-1,-1,-1,210,212,214,216,-1,218,220,222,224,226,228,230,232,-1,-1,234,-1,-1,236,-1,238,240,242,244,-1,246,248,250,-1,252,254,256,258,-1,-1,-1,260,262,264,266,268,270,272,274,276,278,-1,280,282,284,286,288,290,292,294,296,-1,-1,298,300,302,304,-1,306,308,310,-1,312,-1,314,316,318,320,322,-1,-1,-1,324,326,328,330,332,334,-1,-1,-1,336,-1,-1,338,340,-1,342,-1,-1,-1,-1,-1,-1,-1,-1,-1,-1,344,-1,-1,-1,346,-1,348,-1,350,352,354,-1,-1,356,-1,358,360,-1,362,364,-1,-1,366,-1,368,-1,370,372,374,376,-1,-1,-1,-1,-1,-1,-1,-1,-1,-1,378,380,382,384,-1,386,-1,-1,-1,-1,388,390,392,-1,-1,-1,-1,394,-1,396,398,400,402,404,-1,-1,406,-1,408,410,412,414,-1,-1,-1,-1,-1,-1,416,418,420,-1,422,424,426,428,430,-1,-1,-1,-1,-1,-1,-1,432,434,-1,-1,436,438,-1,440,442,444,-1,-1,-1,-1,-1,-1,-1,-1,-1,-1,-1,-1,-1,-1,-1,-1,-1,-1,-1,-1,-1,-1,-1,-1,-1,-1,-1,-1,-1,-1,-1,-1,-1,-1,-1,-1,-1,-1,-1,-1,-1,-1,-1,-1,-1,-1,-1,-1,-1,-1,-1,-1,-1,-1,-1,-1,-1,-1,-1,-1,-1,-1,-1,-1,-1,-1,-1,-1,-1,-1,-1,-1,-1,-1,-1,-1,-1,-1,-1,-1,-1,-1,-1,-1,-1,-1,-1,-1,-1,-1,-1,-1,-1,-1,-1,-1,-1,-1,-1,-1,-1,-1],"split_conditions":[7.5E-1,2.4017742E-2,3.8785762E-3,2.6976913E-1,2.2402598E-1,1.4470977E-1,3.169766E-1,5.277869E-2,2.907648E-1,7.890496E-1,3.683241E-3,3.6683555E-3,1.776367E-3,5E-1,1.8174604E-1,5.1134497E-2,4.914502E-1,1.9285765E-1,3.0253735E-1,7.135811E-2,1.4213564E-1,4.090909E-2,1.0979634E-1,3.5353535E-1,2.4069265E-1,-3.0681819E-2,4.9368435E-1,7.5E-1,4.9983557E-2,5.360079E-1,1.27890315E-2,1.9439328E-2,5E-1,9.924289E-3,1.1719757E-1,2.7886003E-1,9.355475E-2,2.5E-1,5.0000004E-2,2.2124255E-1,2.5360134E-1,7.5E-2,-5.454546E-2,2.2481963E-1,1.11233324E-1,-8.522727E-2,-2.0454545E-2,-1.3636365E-2,6.8181846E-3,9.545455E-2,6.8181846E-3,1.3482408E-2,5.200646E-1,4.2584676E-2,5.421338E-1,3.7986927E-2,-5.4545455E-2,3.7810716E-1,2.5E-1,1.5039902E-2,5.7603605E-2,-6.1363637E-2,1.8679655E-1,7.366482E-3,1.0307266E-2,1.0637241E-1,6.818182E-2,4.6032039E-4,5.0147977E-2,2.7207792E-1,2.865801E-1,1.1081881E-1,2.4902803E-1,2.6078627E-2,2.6885822E-1,3.239538E-2,1.703105E-1,-9.090907E-3,3.6809687E-2,1.078991E-1,4.7188424E-2,8.152959E-2,2.2727273E-2,4.044722E-2,5.925682E-1,3.321276E-2,7.457191E-2,3.5293072E-1,3.2416068E-2,5.6250002E-2,-2.0454545E-2,6.1363637E-2,2.9090908E-1,2.2821441E-1,5.3600788E-2,1.3809612E-3,4.5295525E-2,2.6327562E-1,6.369694E-3,5.7954546E-2,1.3636364E-2,2.2010133E-2,5E-1,1.363636E-2,1.7500894E-2,6.136364E-2,1.2063492E-1,5E-1,2.0959027E-2,-9.318182E-2,5E-1,-4.7727276E-2,2.5E-1,2.1516114E-2,7.042902E-2,9.355475E-2,6.4314574E-1,3.4856953E-2,5.0000004E-2,-0E0,7.086485E-2,1.1498803E-1,-9.545455E-2,-1.3636365E-2,1.8283924E-1,3.939022E-2,1.7893218E-1,1.3034582E-1,1.0712093E-1,3.196248E-1,-5.909091E-2,4.094048E-2,3.2275566E-1,-6.81818E-3,5.454546E-2,3.4090914E-2,5.655844E-1,5E-1,1.770002E-2,4.203368E-2,4.090909E-2,6.663355E-2,4.3599825E-2,4.7984447E-2,2.0990632E-1,1.2737724E-1,9.206408E-3,3.886003E-1,2.626984E-1,-6.81818E-3,-2.727273E-2,2.4191919E-1,-5.454546E-2,-1.3636364E-2,3.5087144E-1,3.4090914E-2,2.3183163E-2,1.1903917E-1,2.2763348E-1,1.1600073E-2,4.090909E-2,2.4898991E-1,1.0191493E-1,3.2587963E-1,-0E0,8.59423E-3,1.3149319E-2,4.6748155E-1,1.7627027E-2,6.8181846E-3,-8.9999996E-2,6.8181846E-3,2.7330446E-1,2.7113998E-1,2.5E-1,2.5E-1,8.621913E-2,3.1404145E-2,2.8217894E-1,1.264479E-2,2.8102452E-1,5E-1,5.0000004E-2,7.234462E-2,9.651431E-2,2.3965188E-3,7.129148E-1,4.1002887E-1,5E-1,2.2077921E-1,1.6890332E-1,4.2152647E-2,3.181818E-2,-1.13327995E-1,8.924964E-2,1.0900387E-1,2.557302E-1,6.327561E-2,5.0000004E-2,2.797827E-1,3.433959E-2,1.3231306E-1,-1.1301035E-1,3.1259853E-2,-1.818182E-2,2.5E-1,3.0331892E-1,2.3908955E-1,5.8778393E-1,1.8593073E-1,2.0454545E-2,3.4090914E-2,-5.9090912E-2,8.985454E-2,1.0595135E-2,1.52886E-1,1.07720055E-1,1.6046175E-1,3.0746466E-2,-1.1818182E-1,-2.0454545E-2,-4.5454543E-2,5E-1,6.0000006E-2,1.3636364E-2,6.3171396E-3,1.2787397E-1,-1.3636365E-2,4.5855805E-1,7.727273E-2,-2.727273E-2,-7.727273E-2,-2.0454545E-2,4.7727276E-2,6.8181846E-3,-9.74026E-2,-1.3636365E-2,-2.0454545E-2,-1.1818182E-1,5E-1,8.6363636E-2,-6.81818E-3,-4.7727276E-2,4.6037488E-2,-6.428571E-2,5.84203E-2,2.0454545E-2,1.5948702E-2,1.5497836E-1,8.608548E-3,-6.81818E-3,8.6363636E-2,1.3542569E-1,-9.545455E-2,1.7085138E-1,2.5E-1,1.363636E-2,6.947002E-2,1.4016779E-2,-6.81818E-3,-3.181818E-2,5E-1,-1.1113637E-1,5E-1,1.363636E-2,2.8722942E-1,6.658994E-2,2.886003E-1,1.5563795E-1,-0E0,6.272728E-2,-0E0,1.363636E-2,-2.0454545E-2,-7.636364E-2,-2.727273E-2,-6.81818E-3,-2.7272727E-2,-0E0,1.9003972E-2,4.6166265E-1,3.639971E-1,2.7284986E-1,1.363636E-2,2.5025576E-1,1.363636E-2,-3.0681819E-2,6.818182E-2,-0E0,4.676412E-2,2.290365E-1,3.7543732E-1,-1.3636365E-2,-3.409091E-2,-6.81818E-3,6.8181846E-3,8.5209236E-2,3.4090914E-2,1.0796906E-1,2.5475448E-1,2.5E-1,2.5E-1,6.4935066E-2,1.363636E-2,-5.4545455E-2,5.807359E-1,6.8181846E-3,1.5408227E-1,4.1713253E-1,1.0620012E-1,9.7182795E-2,6.8181846E-3,3.75E-2,-1.3636365E-2,-8.1818186E-2,5.454546E-2,6.8181846E-3,3.1321934E-1,2.5862193E-1,2.7112748E-2,-6.81818E-3,1.5549622E-1,8.137596E-2,3.331141E-1,3.7783623E-1,7.090239E-2,-1.0790857E-1,-0E0,-1.3636364E-2,-6.81818E-3,-8.6363636E-2,-2.727273E-2,6.1363637E-2,1.1515152E-1,1.3189033E-1,2.7272727E-2,-0E0,7.349556E-2,4.6464646E-1,6.818182E-2,3.802309E-1,5.9648044E-2,2.578269E-2,-6.81818E-3,1.3636364E-2,-2.727272E-3,-4.0909093E-2,-6.363636E-2,-1.3636364E-2,-5.0000004E-2,-1.0025253E-1,-8.6363636E-2,1.8181823E-2,-6.4090915E-2,-1.1505682E-1,-0E0,2.0454545E-2,2.727273E-2,-9.09091E-3,-8.863636E-2,-1.0747445E-1,-6.818182E-2,4.6363637E-2,-3.75E-2,-9.6473634E-2,-0E0,-6.545454E-2,-2.0454545E-2,-7.727273E-2,1.363636E-2,-0E0,-1.3636364E-2,-8.693182E-2,-5.454546E-2,-1.3636365E-2,2.727273E-2,-3.181818E-2,-8.323864E-2,-2.097902E-2,-1.1164773E-1,-4.0909093E-2,8.1818186E-2,-2.7272725E-2,-7.561983E-2,-2.9802325E-9,-1.0031978E-1,1.363636E-2,5.0000004E-2,-9.721408E-2,-6.818182E-2,-1.7832167E-2,-1.02655776E-1,-2.0454545E-2,-6.81818E-3,-4.6363637E-2,-1.818182E-2,-1.0056819E-1,-1.3636365E-2,-9.375E-2,4.090909E-2,-4.48052E-2,-9.09091E-3,-7.727273E-2,-5.1136363E-2,-1.1079546E-1,-1.0568182E-1,-4.0909093E-2,-4.4055946E-2,-1.0181819E-1,-5.0349653E-2,3.4090914E-2,-1.05194815E-1,6.8181846E-3,-7.272728E-2,-2.142857E-2,-9.594595E-2,-5.0826445E-2,-4.909091E-2,-8.839713E-2,-4.090909E-2,-1.0734266E-1,-9.4431825E-2,-5.5227276E-2,-4.5454543E-2,-7.904716E-2,-9.545455E-2,-2.0454545E-2,-3.0681819E-2,-6.81818E-3,-9.818182E-2,-3.1818185E-2,-1.3636365E-2,-7.545455E-2,4.7727276E-2,-0E0,4.090909E-2,-6.545455E-2,-8.572286E-2,-2.4545455E-2,-7.290765E-2,-5.0622664E-2,-1.1590909E-1,-8.267046E-2,-8.4545456E-2,-4.285714E-2],"split_indices":[5,7,7,0,0,10,8,6,0,6,9,7,7,1,0,6,6,10,9,6,0,0,10,0,0,0,10,2,6,6,9,9,1,9,8,0,6,5,0,10,10,0,0,0,10,0,0,0,0,0,0,6,10,6,10,7,0,8,2,9,10,0,0,9,10,10,0,8,6,0,0,6,9,10,10,0,7,0,7,8,6,0,0,6,6,6,8,10,7,0,0,0,0,6,6,8,8,0,7,0,0,7,3,0,7,0,0,2,7,0,4,0,5,7,8,6,0,6,0,0,6,8,0,0,8,9,0,9,9,0,0,6,6,0,0,0,0,3,9,7,0,10,7,9,10,10,8,0,0,0,0,0,0,0,6,0,6,10,0,8,0,0,8,6,0,9,7,10,7,0,0,0,0,0,5,2,10,6,0,7,0,1,0,6,6,7,0,0,1,0,0,9,0,0,0,8,10,0,0,8,7,7,0,7,0,2,0,10,9,0,0,0,0,8,7,0,0,0,6,0,0,0,3,0,0,7,10,0,10,0,0,0,0,0,0,0,0,0,0,3,0,0,0,6,0,9,0,6,0,7,0,0,0,0,0,2,0,9,9,0,0,3,0,1,0,0,6,0,10,0,0,0,0,0,0,0,0,0,0,7,10,0,10,0,9,0,0,0,0,10,6,8,0,0,0,0,0,0,10,10,5,5,0,0,0,0,0,9,6,9,10,0,0,0,0,0,0,6,10,9,0,8,10,6,6,9,0,0,0,0,0,0,0,0,0,0,0,6,0,0,0,9,9,0,0,0,0,0,0,0,0,0,0,0,0,0,0,0,0,0,0,0,0,0,0,0,0,0,0,0,0,0,0,0,0,0,0,0,0,0,0,0,0,0,0,0,0,0,0,0,0,0,0,0,0,0,0,0,0,0,0,0,0,0,0,0,0,0,0,0,0,0,0,0,0,0,0,0,0,0,0,0,0,0,0,0,0,0,0,0,0,0,0,0,0,0,0,0,0,0,0,0,0,0,0],"split_type":[0,0,0,0,0,0,0,0,0,0,0,0,0,0,0,0,0,0,0,0,0,0,0,0,0,0,0,0,0,0,0,0,0,0,0,0,0,0,0,0,0,0,0,0,0,0,0,0,0,0,0,0,0,0,0,0,0,0,0,0,0,0,0,0,0,0,0,0,0,0,0,0,0,0,0,0,0,0,0,0,0,0,0,0,0,0,0,0,0,0,0,0,0,0,0,0,0,0,0,0,0,0,0,0,0,0,0,0,0,0,0,0,0,0,0,0,0,0,0,0,0,0,0,0,0,0,0,0,0,0,0,0,0,0,0,0,0,0,0,0,0,0,0,0,0,0,0,0,0,0,0,0,0,0,0,0,0,0,0,0,0,0,0,0,0,0,0,0,0,0,0,0,0,0,0,0,0,0,0,0,0,0,0,0,0,0,0,0,0,0,0,0,0,0,0,0,0,0,0,0,0,0,0,0,0,0,0,0,0,0,0,0,0,0,0,0,0,0,0,0,0,0,0,0,0,0,0,0,0,0,0,0,0,0,0,0,0,0,0,0,0,0,0,0,0,0,0,0,0,0,0,0,0,0,0,0,0,0,0,0,0,0,0,0,0,0,0,0,0,0,0,0,0,0,0,0,0,0,0,0,0,0,0,0,0,0,0,0,0,0,0,0,0,0,0,0,0,0,0,0,0,0,0,0,0,0,0,0,0,0,0,0,0,0,0,0,0,0,0,0,0,0,0,0,0,0,0,0,0,0,0,0,0,0,0,0,0,0,0,0,0,0,0,0,0,0,0,0,0,0,0,0,0,0,0,0,0,0,0,0,0,0,0,0,0,0,0,0,0,0,0,0,0,0,0,0,0,0,0,0,0,0,0,0,0,0,0,0,0,0,0,0,0,0,0,0,0,0,0,0,0,0,0,0,0,0,0,0,0,0,0,0,0,0,0,0,0,0,0,0,0,0,0,0,0,0,0,0,0,0,0,0,0,0,0,0,0,0,0,0,0,0,0,0,0],"sum_hessian":[4.982E3,3.544E3,1.438E3,1.412E3,2.132E3,2E1,1.418E3,8.49E2,5.63E2,9.96E2,1.136E3,1E1,1E1,1.384E3,3.4E1,1E2,7.49E2,8.1E1,4.82E2,9.94E2,2E0,1E0,1.135E3,8E0,2E0,3E0,7E0,5.94E2,7.9E2,1E1,2.4E1,9.4E1,6E0,7.37E2,1.2E1,6E1,2.1E1,4.8E2,2E0,1.08E2,8.86E2,1E0,1E0,4.06E2,7.29E2,7E0,1E0,1E0,1E0,6E0,1E0,3.85E2,2.09E2,4.7E1,7.43E2,8E0,2E0,5E0,1.9E1,1.4E1,8E1,1E0,5E0,3.7E1,7E2,1.1E1,1E0,3.2E1,2.8E1,8E0,1.3E1,3.24E2,1.56E2,9.3E1,1.5E1,7.55E2,1.31E2,2E0,4.04E2,8E0,7.21E2,2E0,3.83E2,2.02E2,7E0,3.6E1,1.1E1,7.37E2,6E0,7E0,1E0,3E0,2E0,3E0,1.6E1,7E0,7E0,1.3E1,6.7E1,3E0,2E0,2.6E1,1.1E1,1E0,6.99E2,1E0,1E1,4E0,2.8E1,5E0,2.3E1,1E0,7E0,8E0,5E0,1.2E2,2.04E2,1.54E2,2E0,1E0,9.2E1,8E0,7E0,1E0,7.54E2,1.26E2,5E0,1.4E2,2.64E2,6E0,2E0,6E0,7.15E2,1E0,1E0,1E0,3.82E2,3E0,1.99E2,6E0,1E0,2.1E1,1.5E1,5E0,6E0,6.86E2,5.1E1,3E0,3E0,1E0,1E0,2E0,1E0,2E0,1.4E1,1E0,6E0,5E0,2E0,1.2E1,1E0,5E0,6.2E1,2.5E1,1E0,4E0,7E0,4.02E2,2.97E2,1E0,9E0,1E0,3E0,2.4E1,4E0,1.1E1,1.2E1,5E0,2E0,5E0,3E0,3E0,2E0,9.2E1,2.8E1,2E2,4E0,2E0,1.52E2,9E1,2E0,6E0,2E0,7.36E2,1.8E1,2.4E1,1.02E2,3E0,2E0,8.6E1,5.4E1,9.8E1,1.66E2,4E0,2E0,3E0,3E0,5.95E2,1.2E2,3.81E2,1E0,1E0,2E0,1.8E1,1.81E2,3E0,3E0,4E0,1.7E1,1.4E1,1E0,2E0,3E0,4E0,2E0,2.36E2,4.5E2,1E0,5E1,2E0,1E0,2E0,1E0,1E0,1E0,1.3E1,1E0,1E0,5E0,3E0,2E0,1E0,1E0,6E0,6E0,4E0,1E0,5.8E1,4E0,2.4E1,1E0,2E0,2E0,4E0,3E0,4.01E2,1E0,1E1,2.87E2,1E0,2E0,5E0,1.9E1,3E0,1E0,2E0,9E0,5E0,7E0,1E0,4E0,1E0,1E0,1E0,4E0,2E0,1E0,2E0,1E0,5.9E1,3.3E1,5E0,2.3E1,1E0,1.99E2,1E0,3E0,1E0,1E0,6.3E1,8.9E1,8.9E1,1E0,1E0,1E0,1E0,5E0,1E0,1.7E1,1.6E1,8E0,4E0,9.8E1,1E0,2E0,8.5E1,1E0,4.1E1,1.3E1,8.4E1,1.4E1,1E0,3E0,1E0,2E0,2E0,1E0,4.53E2,1.42E2,1.19E2,1E0,1.78E2,2.03E2,1.4E1,4E0,9E0,1.72E2,1E0,2E0,1E0,2E0,1E0,3E0,1.5E1,2E0,2E0,1E0,6E0,2.3E2,1E0,4.49E2,4E1,1E1,1E0,2E0,4E0,2E0,2E0,2E0,5E0,5.3E1,2E0,2E0,9E0,1.5E1,1E0,1E0,1E0,2E0,7.3E1,3.28E2,6E0,4E0,7E0,2.8E2,1E0,4E0,1E0,2E0,1E0,1E0,2E0,7E0,4E0,1E0,5E0,2E0,4.7E1,1.2E1,3.1E1,2E0,2E0,3E0,2.1E1,2E0,1.98E2,1E0,2E0,6.1E1,7.7E1,1.2E1,8.8E1,1E0,1E0,4E0,2E0,1.5E1,1E0,1.5E1,2E0,6E0,2E0,2E0,3E0,9.5E1,8.3E1,2E0,1.2E1,2.9E1,1.2E1,1E0,8.3E1,1E0,8E0,6E0,4.43E2,1E1,2.9E1,1.13E2,3E0,1.16E2,1.59E2,1.9E1,1.7E1,1.86E2,1.3E1,1E0,3E0,1E0,4E0,5E0,1E0,1.4E1,1E0,1E0,2E0,4E0,2.26E2,4E0,3.77E2,7.2E1,2.5E1,1.5E1,4E0,6E0],"tree_param":{"num_deleted":"0","num_feature":"11","num_nodes":"445","size_leaf_vector":"0"}},{"base_weights":[-2.1394633E-1,-2.2627567E-1,-1.8342413E-1,-2.0742106E-1,-2.3865978E-1,-2.164502E-2,-1.8568906E-1,-1.9133872E-1,-2.2423363E-1,-2.5587586E-1,-2.2624622E-1,-1.664256E-1,1.251033E-1,-1.7058581E-1,-2.1025169E-1,-2.0234542E-1,-1.1389135E-1,-2.395185E-1,-1.8597022E-1,-2.565859E-1,3.8636368E-2,9.015151E-2,-2.2682644E-1,-1.9911614E-1,-1.2878786E-2,-7.926136E-2,2.1164772E-1,-1.7443727E-1,-3.6778837E-2,-2.1200067E-1,1.7889628E-2,-2.13474E-1,-1.6093887E-1,-1.2194242E-1,1.682884E-1,-2.4302928E-1,-4.810178E-2,-2.4060057E-1,-1.661561E-1,-2.6031074E-1,-2.0805958E-1,2.125E-1,-1.5454546E-1,1.9318193E-2,1.1590907E-1,-1.8110032E-1,-2.3065847E-1,-2.0951703E-1,-5.7954535E-2,-3.863637E-2,1.9318193E-2,2.3636362E-1,1.9318193E-2,-1.4198183E-1,-1.929694E-1,8.561283E-2,-8.637644E-2,-2.3846748E-1,-1.9399911E-1,1.7642048E-1,-6.58482E-2,-9.349432E-2,-2.1802843E-1,-2.980402E-1,-1.3808048E-1,-1.5811841E-1,-6.487157E-2,-2.4607927E-1,-1.1523933E-1,6.1214283E-2,-1.0369642E-1,-2.5478745E-1,7.131871E-2,1.2207168E-1,-1.7286873E-1,-2.6130408E-1,-8.2494594E-2,4.3560613E-2,-2.1634445E-1,2.536974E-2,-1.8987611E-1,-2.638501E-1,-2.2629966E-1,-2.2694035E-1,-1.2813073E-1,-2.7526638E-1,-1.8463294E-1,1.626894E-1,-9.707791E-2,2.0681834E-2,-1.1630411E-1,-2.436756E-1,-7.5852275E-2,-1.9521236E-1,9.772727E-2,-7.719155E-2,-1.590909E-2,-2.1525252E-1,5.6155324E-3,-2.1943942E-1,7.9467274E-2,-7.194788E-2,-1.7629126E-1,-2.126599E-1,-8.416221E-2,3.272726E-3,-1.7705667E-1,-2.5082538E-1,-1.6607502E-1,-3.9840117E-2,-2.7492753E-1,-3.717187E-2,1.0640029E-1,-1.4712442E-1,3.249069E-3,-2.843632E-1,-1.6053635E-1,9.561442E-2,1.136364E-2,2.1590918E-2,1.483683E-1,9.4618775E-2,-1.7721075E-1,-2.1948694E-1,-2.664077E-1,5.324675E-2,-2.3598485E-1,9.943187E-3,5.5397734E-2,2.7651519E-2,-2.2440137E-1,-2.8799191E-2,1.2102273E-1,-2.0975089E-2,-1.9882752E-1,-1.2129658E-1,-2.6991642E-1,-2.2852483E-1,-1.5913016E-1,-3.575036E-2,-2.4038583E-1,-1.7894569E-1,-1.0625372E-1,-2.8519094E-1,-9.479876E-2,1.0097617E-1,-1.865718E-1,9.886366E-2,-6.439394E-2,-1.3682745E-1,8.551139E-2,-6.9886364E-2,-2.4592178E-1,-1.19805194E-1,1.1590907E-1,-1.12153105E-1,-1.9977644E-1,-2.3249999E-1,-3.863637E-2,1.2500812E-1,-1.3461174E-1,2.6363626E-2,-2.2104736E-1,-1.2638783E-1,2.8354857E-2,-5.076463E-2,-2.013878E-1,-2.4389763E-1,-4.185306E-2,3.131461E-2,-1.510751E-1,9.2923105E-2,-7.9733215E-2,-1.1441894E-1,-2.6692083E-1,-7.8587994E-2,-2.5223497E-1,-2.1224003E-1,4.626419E-2,-7.934559E-2,7.878786E-2,-1.9944996E-2,-1.7393303E-1,1.9318193E-2,-1.444459E-2,-3.099735E-1,-1.7309085E-1,9.561442E-2,-1.875952E-1,-2.6727974E-1,-1.5528576E-1,-2.346242E-1,-5.045453E-2,-2.4798998E-1,-2.7786204E-1,-5.7954535E-2,1.0963202E-1,3.8636357E-2,2.8409213E-3,-2.3044345E-1,7.8125015E-2,-1.5630844E-1,1.6646107E-1,-1.1442899E-1,-2.286116E-1,2.3008853E-2,-2.3527786E-1,-2.7372962E-1,-8.994755E-2,-1.5580726E-1,-2.3041165E-1,1.2716992E-1,-1.7971164E-1,3.8636357E-2,-7.342472E-2,-9.038636E-2,-2.545417E-1,-4.3569803E-2,-2.0185786E-1,-1.7603725E-1,-6.88963E-2,-8.090909E-2,-2.8799486E-1,1.7922506E-1,-2.4588172E-1,1.5151514E-1,-2.532038E-2,-8.5122466E-2,-1.9134508E-1,-1.9318178E-2,-7.727273E-2,-1.6363632E-2,-1.8337661E-1,9.659091E-2,-1.5757576E-1,-2.3761933E-1,-3.09178E-1,-2.7272731E-2,-1.8238635E-1,-2.3898989E-1,1.8181856E-3,-1.3464545E-1,-2.1032129E-1,-5.7954535E-2,-2.4915583E-1,1.9372728E-1,-3.1193187E-2,1.0738635E-1,-2.0448864E-1,-3.4848493E-2,1.0499999E-1,-1.728724E-2,-2.2230582E-1,-4.1262724E-2,-1.8084554E-1,1.1912944E-1,-1.5792012E-1,-1.6670099E-1,1.91261E-1,8.077651E-2,-2.119633E-1,-2.579525E-1,5.3737223E-2,2.9506365E-2,-8.4909365E-2,1.0096209E-1,-1.648502E-1,8.227274E-2,-1.7211646E-1,-6.1108865E-2,1.5105696E-1,-1.6707635E-1,9.343108E-2,-4.789366E-2,-1.5078685E-1,-1.675568E-1,3.657682E-2,-2.604308E-1,-2.1508282E-1,1.6187319E-1,-2.3554379E-1,1.7988017E-1,-1.4731184E-1,-1.6810188E-1,7.5285495E-3,-1.3665356E-1,-3.3316627E-1,-2.3293072E-1,2.4232468E-2,-9.821837E-2,-2.3117843E-1,-5.9899136E-2,-2.7295208E-1,-4.2840838E-4,-1.664428E-1,-1.6757463E-1,-2.608861E-1,-1.4969696E-1,-7.14268E-4,-2.2197595E-1,-2.7997613E-1,-3.0883124E-1,-2.648043E-1,-2.508636E-1,-1.4105403E-1,6.0106777E-2,-1.8189515E-1,-9.330739E-2,-2.4284197E-1,-4.4612903E-2,1.1293706E-1,-1.6980964E-1,-2.8177956E-1,9.912586E-2,-1.8601398E-1,9.6967425E-3,-2.805413E-1,-1.4232738E-1,-2.320424E-1,1.843366E-1,-1.9632936E-1,-4.0606063E-2,-1.1003788E-1,-2.614754E-1,-5.930975E-3,-1.6409639E-1,1.2439394E-1,-1.0962585E-1,-2.3226082E-1,-2.3514874E-1,-1.1174819E-1,2.7061986E-2,-9.4816454E-2,1.0610004E-1,-1.8736498E-1,-1.9823186E-1,-1.2499991E-1,1.030303E-1,-1.3030303E-1,-9.82684E-2,-2.4883115E-1,-2.590322E-1,-2.0707999E-1,-5.2840903E-2,-3.1988832E-1,-0E0,-3.6363643E-2,-1.9318178E-2,-2.3030302E-1,-2.7415586E-1,-7.727273E-2,-1.4795455E-1,7.647728E-2,-1.6185899E-1,1.15434624E-1,-2.5568855E-1,-1.9443442E-1,5.795455E-2,2.1318182E-1,-2.6598012E-1,2.0738646E-2,-5.9090912E-2,6.8181753E-3,3.8636357E-2,-4.8807222E-2,-2.006271E-1,-2.3658313E-1,-2.475379E-1,1.8745298E-2,-2.3580888E-1,-6.0787603E-2,1.5268667E-1,-1.25E-1,-1.9514464E-1,-5.564739E-2,-2.0764141E-1,-1.9595325E-3,3.4090906E-2,2.2203079E-1,1.136364E-2,1.0980113E-1,1.25E-1,-2.1966268E-1,-2.6370895E-1,-5.9899136E-2,-1.8055543E-2,-1.0117546E-1,2.788899E-2,1.6706294E-1,-1.1882027E-1,-2.549448E-1,-1.3358137E-1,7.57576E-3,2.1370666E-1,1.9318178E-2,-1.9003157E-1,8.282676E-3,1.6119257E-1,-5.4741004E-3,-8.353246E-2,3.7096937E-3,-3.717187E-2,-1.6607547E-1,5.0159886E-2,4.7053397E-3,-2.114457E-1,-2.706532E-1,-4.639265E-3,-2.25547E-1,-7.2274186E-2,-2.6611242E-1,-4.2302057E-2,-1.786657E-1,7.288717E-2,-2.7032897E-2,-1.8357173E-1,2.5509551E-2,4.7053397E-3,3.164336E-2,-1.10653274E-1,-1.8021926E-2,-2.4562413E-1,-6.502932E-2,1.6131872E-1,-2.4294199E-1,-5.539883E-2,-1.8321635E-1,5.5243447E-2,-2.2072616E-1,-2.8873792E-1,-1.7985757E-1,-5.1909078E-2,8.48485E-2,-2.4873699E-1,-1.771116E-1,-2.8248876E-1,-8.44697E-2,1.248458E-1,-2.6645333E-1,-2.5638914E-1,9.943187E-3,2.0819798E-2,-2.3329724E-1,1.08999856E-1,-5.771498E-2,-2.5278923E-1,-2.4249723E-2,-1.674897E-1,8.6159684E-2,-2.5050604E-1,-7.291862E-2,-6.566338E-2,-1.2559742E-3,-1.9276464E-1,2.9870138E-2,-2.567341E-1,8.147818E-2,-4.671052E-2,-2.93016E-1,3.9977744E-2,-1.9040228E-1,-1.6421303E-1,-2.3349063E-1,-1.2645851E-1,-2.717438E-1,-2.663049E-1,-4.8636362E-2,-2.9545456E-2,-2.3891786E-1,2.1704546E-1,-4.0606063E-2,-1.4241916E-1,4.8953824E-2,3.818181E-2,-2.384333E-1,-1.172052E-1,-2.7940834E-1,-6.000184E-2,-1.9072291E-1,8.188386E-2,-2.4149542E-1,-1.1747587E-1,5.4386724E-2,1.9642541E-1,2.8199786E-2,-2.7680215E-1,7.830667E-3,-2.0873939E-1,-1.590113E-1,6.6168614E-2,-1.659106E-1,1.3522726E-1,1.9318193E-2,-4.090908E-2,-1.5454546E-1,-1.3468081E-1,-2.5013497E-1,1.5909096E-2,1.7212123E-1,-1.7486672E-1,1.7922506E-1,-1.908189E-1,2.3970273E-1,-2.6247E-1,-3.030906E-2,-7.638632E-2,-2.0450322E-1],"categories":[],"categories_nodes":[],"categories_segments":[],"categories_sizes":[],"default_left":[true,true,true,true,true,true,true,true,true,true,true,true,true,true,true,true,true,true,true,true,true,true,true,true,true,false,true,true,true,true,true,true,true,true,false,true,true,true,true,true,true,false,false,false,false,true,true,false,false,false,false,false,false,true,true,true,true,true,true,false,true,true,true,false,true,true,true,true,true,true,true,true,true,true,true,true,true,true,true,true,true,true,true,true,true,true,true,false,false,true,true,true,true,true,false,false,false,true,true,true,false,true,true,true,true,true,true,true,true,true,false,false,false,true,true,true,true,false,false,false,false,false,true,true,true,true,false,false,false,true,true,false,false,true,true,true,true,true,true,true,true,true,true,true,true,true,true,false,true,true,false,true,true,true,false,true,true,true,false,true,true,true,true,true,true,true,true,true,true,true,true,true,true,true,false,true,true,true,true,true,false,false,false,false,false,true,true,false,true,true,true,true,true,true,true,false,false,false,false,true,false,false,false,true,true,true,false,true,true,true,true,false,true,false,false,true,true,true,true,true,true,false,false,false,false,false,false,true,true,false,false,true,true,false,false,true,true,true,true,true,true,true,true,false,false,true,false,false,true,true,false,true,true,true,true,true,true,true,true,true,true,true,false,false,true,true,false,false,true,true,true,true,true,true,true,false,true,true,true,false,true,false,true,false,true,true,false,false,true,true,true,false,false,true,true,true,true,false,true,true,true,false,true,true,true,true,true,true,true,true,false,true,false,false,false,true,true,true,true,false,true,false,false,true,false,true,true,true,true,true,true,true,true,true,true,true,true,true,true,false,false,false,true,false,false,false,false,false,false,false,false,false,true,true,true,true,true,false,false,false,false,false,false,false,false,false,false,false,false,false,false,false,false,false,false,false,false,false,false,false,false,false,false,false,false,false,false,false,false,false,false,false,false,false,false,false,false,false,false,false,false,false,false,false,false,false,false,false,false,false,false,false,false,false,false,false,false,false,false,false,false,false,false,false,false,false,false,false,false,false,false,false,false,false,false,false,false,false,false,false,false,false,false,false,false,false,false,false,false,false,false,false,false,false,false,false,false,false,false,false,false,false,false,false,false,false,false,false,false,false,false,false,false,false,false,false,false,false,false,false,false,false,false,false,false,false,false,false,false,false,false,false,false,false,false,false,false,false,false,false,false,false,false,false,false,false,false],"id":1,"left_children":[1,3,5,7,9,11,13,15,17,19,21,23,25,27,29,31,33,35,37,39,41,43,45,47,49,-1,51,53,55,57,59,61,63,65,-1,67,69,71,73,75,77,-1,-1,-1,-1,79,81,-1,-1,-1,-1,-1,-1,83,85,87,89,91,93,-1,95,97,99,-1,101,103,105,107,109,111,113,115,117,119,121,123,125,127,129,131,133,135,137,139,141,143,145,-1,-1,147,149,151,153,155,-1,-1,-1,157,159,161,-1,163,165,167,169,171,173,175,177,179,-1,-1,-1,181,183,185,187,-1,-1,-1,-1,-1,189,191,193,195,-1,-1,-1,197,199,-1,-1,201,203,205,207,209,211,213,215,217,219,221,223,225,227,-1,229,231,-1,233,235,237,-1,239,241,243,-1,245,247,249,251,253,255,257,259,261,263,265,267,269,271,273,-1,275,277,279,281,283,-1,-1,-1,-1,-1,285,287,-1,289,291,293,295,297,299,301,-1,-1,-1,-1,303,-1,-1,-1,305,307,309,-1,311,313,315,317,-1,319,-1,-1,321,323,325,327,329,331,-1,-1,-1,-1,-1,-1,333,335,-1,-1,337,339,-1,-1,341,343,345,347,349,351,353,355,-1,-1,357,-1,-1,359,361,-1,363,365,367,369,371,373,375,377,379,381,383,-1,-1,385,387,-1,-1,389,391,393,395,397,399,401,-1,403,405,407,-1,409,-1,411,-1,413,415,-1,-1,417,419,421,-1,-1,423,425,427,429,-1,431,433,435,-1,437,439,441,443,445,447,449,451,-1,453,-1,-1,-1,455,457,459,461,-1,463,-1,-1,465,-1,467,469,471,473,475,477,479,481,483,485,487,489,491,493,-1,-1,-1,495,-1,-1,-1,-1,-1,-1,-1,-1,-1,497,499,501,503,505,-1,-1,-1,-1,-1,-1,-1,-1,-1,-1,-1,-1,-1,-1,-1,-1,-1,-1,-1,-1,-1,-1,-1,-1,-1,-1,-1,-1,-1,-1,-1,-1,-1,-1,-1,-1,-1,-1,-1,-1,-1,-1,-1,-1,-1,-1,-1,-1,-1,-1,-1,-1,-1,-1,-1,-1,-1,-1,-1,-1,-1,-1,-1,-1,-1,-1,-1,-1,-1,-1,-1,-1,-1,-1,-1,-1,-1,-1,-1,-1,-1,-1,-1,-1,-1,-1,-1,-1,-1,-1,-1,-1,-1,-1,-1,-1,-1,-1,-1,-1,-1,-1,-1,-1,-1,-1,-1,-1,-1,-1,-1,-1,-1,-1,-1,-1,-1,-1,-1,-1,-1,-1,-1,-1,-1,-1,-1,-1,-1,-1,-1,-1,-1,-1,-1,-1,-1,-1,-1,-1,-1,-1,-1,-1,-1,-1,-1,-1,-1,-1],"loss_changes":[1.8336945E0,7.78244E-1,5.232544E-1,3.3914948E-1,3.9795685E-1,4.6699286E-1,4.9054718E-1,5.9838295E-1,3.560791E-1,1.9518661E-1,2.4956131E-1,5.265045E-2,2.1132831E-1,4.491558E-1,2.1766472E-1,2.5917053E-1,2.3180366E-1,3.149128E-1,1.765132E-1,1.0562515E-1,1.336028E-1,3.2343268E-3,1.7655182E-1,1.0713637E-3,3.2343343E-3,0E0,3.3462673E-2,4.8926353E-1,1.6522361E-1,2.0720673E-1,7.799213E-2,2.5228882E-1,3.9446044E-1,1.7762065E-1,0E0,1.5755653E-1,6.712158E-2,2.4385452E-1,3.1131697E-1,1.2274933E-1,1.5117931E-1,0E0,0E0,0E0,0E0,1.8782258E-1,1.0608673E-1,0E0,0E0,0E0,0E0,0E0,0E0,3.427806E-1,3.2239532E-1,1.2844294E-1,6.328145E-2,1.6021538E-1,1.330452E-1,0E0,1.0378584E-3,2.4255748E-1,2.1892548E-1,0E0,2.9308057E-1,2.0395458E-1,2.8343612E-1,1.3490868E-1,1.4557162E-1,2.1737806E-2,3.2989025E-2,9.093928E-2,3.2834252E-3,7.3658116E-3,1.8749905E-1,1.148262E-1,1.3757527E-1,6.4297067E-4,1.3595176E-1,2.9392458E-2,1.4248419E-1,7.70874E-2,1.1608887E-1,1.0194397E-1,2.8558636E-1,5.8935165E-2,2.9405785E-1,0E0,0E0,3.9623115E-2,7.382926E-2,6.2446594E-2,8.1314266E-2,9.9282265E-2,0E0,0E0,0E0,1.8432677E-2,2.1773271E-1,1.9475174E-1,0E0,2.5476563E-1,2.2919822E-1,1.5519631E-1,1.9790302E-1,1.860054E-1,4.826361E-2,8.62751E-2,2.940957E-1,5.311602E-2,0E0,0E0,0E0,1.3578422E-2,1.1320082E-3,4.8936367E-2,1.1497286E-1,0E0,0E0,0E0,0E0,0E0,2.4483538E-1,2.2867918E-1,8.27713E-2,3.1434134E-2,0E0,0E0,0E0,7.078585E-4,1.3498831E-1,0E0,0E0,1.7821746E-1,2.0510364E-1,1.20550305E-1,5.8415413E-2,9.924698E-2,2.3498303E-1,1.4046752E-2,6.1927795E-2,2.4244738E-1,4.9361658E-1,2.4740696E-3,2.0966949E-1,2.936802E-2,2.2293091E-1,0E0,2.4879538E-4,7.5504124E-2,0E0,7.361355E-2,3.2094955E-2,3.5561353E-2,0E0,2.7509382E-1,1.7978E-1,8.817911E-3,0E0,8.118113E-2,1.2341973E-1,2.2913083E-2,1.17959976E-1,1.3160938E-1,3.0626652E-1,4.2471737E-1,2.0511556E-1,1.2262535E-1,2.0940207E-2,1.5326749E-1,9.271982E-2,1.1668459E-1,2.122314E-1,1.697211E-2,0E0,5.735908E-2,7.583237E-2,2.4736607E-1,1.8168758E-1,6.295057E-2,0E0,0E0,0E0,0E0,0E0,6.7024946E-2,1.11914694E-1,0E0,2.793333E-2,1.5411496E-2,2.0553064E-1,1.0771513E-1,4.4320174E-2,1.7499733E-1,9.413147E-2,0E0,0E0,0E0,0E0,7.961154E-2,0E0,0E0,0E0,3.1708983E-1,1.0634494E-1,2.9362865E-2,0E0,5.0863266E-2,9.109323E-2,5.8075184E-1,1.0458374E-1,0E0,2.4187899E-1,0E0,0E0,4.2308494E-4,6.0505867E-2,2.8358585E-1,1.6802287E-1,2.2833753E-1,3.209344E-1,0E0,0E0,0E0,0E0,0E0,0E0,4.8910508E-1,1.9042206E-1,0E0,0E0,8.1443526E-2,3.1254977E-2,0E0,0E0,6.537533E-2,3.800583E-2,9.917358E-4,2.6805699E-2,2.9997647E-2,1.3431603E-1,3.2493442E-1,1.3695812E-1,0E0,0E0,8.521229E-4,0E0,0E0,7.476385E-2,3.433195E-3,0E0,8.9365775E-3,9.862518E-2,1.655563E-1,1.0444385E-1,1.1739351E-1,1.1983022E-2,6.703898E-2,1.6611218E-2,4.7963057E-3,1.8571687E-1,1.2706041E-2,0E0,0E0,2.5230218E-3,3.3982337E-2,0E0,0E0,3.59239E-2,2.0922966E-2,7.015215E-2,3.7802607E-2,3.4392193E-2,9.505289E-3,4.248753E-3,0E0,1.0627187E-3,1.18032455E-1,1.8393159E-1,0E0,9.5558405E-2,0E0,2.3194626E-3,0E0,1.3264793E-2,4.2724796E-2,0E0,0E0,2.8524757E-4,3.9892234E-3,3.2283366E-3,0E0,0E0,3.9222398E-1,1.9659877E-1,3.3195794E-1,8.347607E-2,0E0,3.5066996E-2,1.5044546E-1,3.70512E-2,0E0,2.3438263E-1,7.4603796E-2,2.139019E-1,5.237627E-2,2.0621634E-1,1.209371E-1,5.9871674E-2,2.655581E-3,0E0,5.6178033E-2,0E0,0E0,0E0,2.6954052E-1,3.2984614E-2,1.828978E-1,5.3897858E-2,0E0,1.395216E-1,0E0,0E0,2.302432E-2,0E0,7.3479444E-2,1.0053836E-1,1.0577865E-1,9.423828E-2,1.4473641E-1,1.2750253E-1,4.320135E-1,3.4785557E-1,5.7788163E-2,2.8149152E-1,1.4195442E-1,3.7855732E-1,5.4734796E-3,1.7906725E-4,0E0,0E0,0E0,2.1568322E-1,0E0,0E0,0E0,0E0,0E0,0E0,0E0,0E0,0E0,4.360555E-2,2.1324635E-1,2.3602755E-1,8.986282E-2,2.1734428E-1,0E0,0E0,0E0,0E0,0E0,0E0,0E0,0E0,0E0,0E0,0E0,0E0,0E0,0E0,0E0,0E0,0E0,0E0,0E0,0E0,0E0,0E0,0E0,0E0,0E0,0E0,0E0,0E0,0E0,0E0,0E0,0E0,0E0,0E0,0E0,0E0,0E0,0E0,0E0,0E0,0E0,0E0,0E0,0E0,0E0,0E0,0E0,0E0,0E0,0E0,0E0,0E0,0E0,0E0,0E0,0E0,0E0,0E0,0E0,0E0,0E0,0E0,0E0,0E0,0E0,0E0,0E0,0E0,0E0,0E0,0E0,0E0,0E0,0E0,0E0,0E0,0E0,0E0,0E0,0E0,0E0,0E0,0E0,0E0,0E0,0E0,0E0,0E0,0E0,0E0,0E0,0E0,0E0,0E0,0E0,0E0,0E0,0E0,0E0,0E0,0E0,0E0,0E0,0E0,0E0,0E0,0E0,0E0,0E0,0E0,0E0,0E0,0E0,0E0,0E0,0E0,0E0,0E0,0E0,0E0,0E0,0E0,0E0,0E0,0E0,0E0,0E0,0E0,0E0,0E0,0E0,0E0,0E0,0E0,0E0,0E0,0E0,0E0,0E0,0E0,0E0,0E0,0E0,0E0,0E0,0E0,0E0,0E0,0E0,0E0],"parents":[2147483647,0,0,1,1,2,2,3,3,4,4,5,5,6,6,7,7,8,8,9,9,10,10,11,11,12,12,13,13,14,14,15,15,16,16,17,17,18,18,19,19,20,20,21,21,22,22,23,23,24,24,26,26,27,27,28,28,29,29,30,30,31,31,32,32,33,33,35,35,36,36,37,37,38,38,39,39,40,40,45,45,46,46,53,53,54,54,55,55,56,56,57,57,58,58,60,60,61,61,62,62,64,64,65,65,66,66,67,67,68,68,69,69,70,70,71,71,72,72,73,73,74,74,75,75,76,76,77,77,78,78,79,79,80,80,81,81,82,82,83,83,84,84,85,85,86,86,89,89,90,90,91,91,92,92,93,93,97,97,98,98,99,99,101,101,102,102,103,103,104,104,105,105,106,106,107,107,108,108,109,109,113,113,114,114,115,115,116,116,122,122,123,123,124,124,125,125,129,129,130,130,133,133,134,134,135,135,136,136,137,137,138,138,139,139,140,140,141,141,142,142,143,143,144,144,145,145,146,146,148,148,149,149,151,151,152,152,153,153,155,155,156,156,157,157,159,159,160,160,161,161,162,162,163,163,164,164,165,165,166,166,167,167,168,168,169,169,170,170,171,171,172,172,173,173,175,175,176,176,177,177,178,178,179,179,185,185,186,186,188,188,189,189,190,190,191,191,192,192,193,193,194,194,199,199,203,203,204,204,205,205,207,207,208,208,209,209,210,210,212,212,215,215,216,216,217,217,218,218,219,219,220,220,227,227,228,228,231,231,232,232,235,235,236,236,237,237,238,238,239,239,240,240,241,241,242,242,245,245,248,248,249,249,251,251,252,252,253,253,254,254,255,255,256,256,257,257,258,258,259,259,260,260,261,261,264,264,265,265,268,268,269,269,270,270,271,271,272,272,273,273,274,274,276,276,277,277,278,278,280,280,282,282,284,284,285,285,288,288,289,289,290,290,293,293,294,294,295,295,296,296,298,298,299,299,300,300,302,302,303,303,304,304,305,305,306,306,307,307,308,308,309,309,311,311,315,315,316,316,317,317,318,318,320,320,323,323,325,325,326,326,327,327,328,328,329,329,330,330,331,331,332,332,333,333,334,334,335,335,336,336,337,337,338,338,342,342,352,352,353,353,354,354,355,355,356,356],"right_children":[2,4,6,8,10,12,14,16,18,20,22,24,26,28,30,32,34,36,38,40,42,44,46,48,50,-1,52,54,56,58,60,62,64,66,-1,68,70,72,74,76,78,-1,-1,-1,-1,80,82,-1,-1,-1,-1,-1,-1,84,86,88,90,92,94,-1,96,98,100,-1,102,104,106,108,110,112,114,116,118,120,122,124,126,128,130,132,134,136,138,140,142,144,146,-1,-1,148,150,152,154,156,-1,-1,-1,158,160,162,-1,164,166,168,170,172,174,176,178,180,-1,-1,-1,182,184,186,188,-1,-1,-1,-1,-1,190,192,194,196,-1,-1,-1,198,200,-1,-1,202,204,206,208,210,212,214,216,218,220,222,224,226,228,-1,230,232,-1,234,236,238,-1,240,242,244,-1,246,248,250,252,254,256,258,260,262,264,266,268,270,272,274,-1,276,278,280,282,284,-1,-1,-1,-1,-1,286,288,-1,290,292,294,296,298,300,302,-1,-1,-1,-1,304,-1,-1,-1,306,308,310,-1,312,314,316,318,-1,320,-1,-1,322,324,326,328,330,332,-1,-1,-1,-1,-1,-1,334,336,-1,-1,338,340,-1,-1,342,344,346,348,350,352,354,356,-1,-1,358,-1,-1,360,362,-1,364,366,368,370,372,374,376,378,380,382,384,-1,-1,386,388,-1,-1,390,392,394,396,398,400,402,-1,404,406,408,-1,410,-1,412,-1,414,416,-1,-1,418,420,422,-1,-1,424,426,428,430,-1,432,434,436,-1,438,440,442,444,446,448,450,452,-1,454,-1,-1,-1,456,458,460,462,-1,464,-1,-1,466,-1,468,470,472,474,476,478,480,482,484,486,488,490,492,494,-1,-1,-1,496,-1,-1,-1,-1,-1,-1,-1,-1,-1,498,500,502,504,506,-1,-1,-1,-1,-1,-1,-1,-1,-1,-1,-1,-1,-1,-1,-1,-1,-1,-1,-1,-1,-1,-1,-1,-1,-1,-1,-1,-1,-1,-1,-1,-1,-1,-1,-1,-1,-1,-1,-1,-1,-1,-1,-1,-1,-1,-1,-1,-1,-1,-1,-1,-1,-1,-1,-1,-1,-1,-1,-1,-1,-1,-1,-1,-1,-1,-1,-1,-1,-1,-1,-1,-1,-1,-1,-1,-1,-1,-1,-1,-1,-1,-1,-1,-1,-1,-1,-1,-1,-1,-1,-1,-1,-1,-1,-1,-1,-1,-1,-1,-1,-1,-1,-1,-1,-1,-1,-1,-1,-1,-1,-1,-1,-1,-1,-1,-1,-1,-1,-1,-1,-1,-1,-1,-1,-1,-1,-1,-1,-1,-1,-1,-1,-1,-1,-1,-1,-1,-1,-1,-1,-1,-1,-1,-1,-1,-1,-1,-1,-1,-1],"split_conditions":[7.5E-1,2.4017742E-2,3.8785762E-3,1.3301545E-1,2.1262625E-1,1.4470977E-1,7.5E-1,2.2393912E-1,5E-1,7.890496E-1,5.320237E-3,3.6683555E-3,1.776367E-3,3.1633216E-1,4.1861534E-1,3.243146E-1,5.7261217E-1,2.1219562E-1,7.549254E-3,3.017847E-1,1.4213564E-1,2.5252527E-1,2.5E-1,3.5353535E-1,2.4069265E-1,-2.377841E-2,4.9368435E-1,1.2561658E-1,3.6392927E-1,5E-1,1.534632E-1,9.51504E-3,2.761922E-4,2.5E-1,5.048652E-2,5.2821064E-1,1.8629365E-1,5.6998557E-1,5.3185895E-3,2.5197938E-1,3.0565214E-1,6.3750006E-2,-4.6363637E-2,5.7954583E-3,3.4772724E-2,4.043074E-2,1.0127048E-3,-6.285511E-2,-1.7386362E-2,-1.1590912E-2,5.7954583E-3,7.090909E-2,5.7954583E-3,1.4528341E-2,7.7543996E-2,3.7986927E-2,1.2277471E-2,5.200646E-1,7.682018E-1,5.2926145E-2,2.9062048E-1,7.200067E-3,2.3965187E-2,-8.941206E-2,1.5927084E-2,2.70202E-1,7.6413184E-2,4.2387372E-1,1.7816225E-2,2.5E-1,3.6205196E-1,3.4689754E-1,6.950216E-1,2.4718614E-1,1.4502165E-1,7.135811E-2,1.6103896E-1,1.4256854E-1,5.9884563E-2,5E-1,2.2222222E-1,2.5363157E-2,1.8048519E-1,9.0981245E-2,6.823413E-2,3.62987E-1,7.944223E-2,4.8806824E-2,-2.9123375E-2,1.9112554E-1,8.9633584E-1,4.044722E-2,5.925682E-1,4.965472E-2,2.9318182E-2,-2.3157464E-2,-4.7727274E-3,2.8297257E-1,5E-1,2.7644052E-3,2.3840183E-2,1.2248084E-1,6.549816E-2,2.096954E-2,2.6788247E-1,8.319632E-2,2.8434342E-1,1.0231226E-4,1.19222976E-1,6.290765E-1,-8.247826E-2,-1.11515615E-2,3.1920087E-2,1.0974026E-1,1.6839826E-1,2.7638936E-1,3.5353535E-1,2.8684327E-2,3.4090923E-3,6.477276E-3,4.451049E-2,2.8385634E-2,2.2128427E-1,2.2124255E-1,7.5E-1,7.720058E-2,-7.0795454E-2,2.9829564E-3,1.6619321E-2,4.978355E-2,2.099567E-1,-8.6397575E-3,3.630682E-2,2.1782106E-1,1.1591582E-1,7.5E-1,4.6349886E-1,2.4145693E-2,2.145743E-1,5.9519894E-2,3.156856E-2,3.27195E-2,1.8520924E-1,5.865164E-3,3.8181818E-1,5E-1,9.4704535E-3,2.96591E-2,2.9090908E-1,2.5E-1,2.5653416E-2,5E-1,1.7289634E-1,4.203368E-2,3.4772724E-2,3.6917694E-2,1.1231817E-2,2.8280172E-2,-1.1590912E-2,1.0111805E-1,5.6067083E-2,2.484127E-1,1.6303577E-2,3.7012988E-1,1.9383338E-1,2.5E-1,4.488655E-2,1.24958895E-1,2.1558158E-2,2.3460656E-2,2.5E-1,2.4948552E-1,3.1601733E-1,5E-1,-8.0076255E-2,2.5108224E-1,2.1347936E-2,4.337389E-1,3.023088E-1,2.0979941E-1,2.363636E-2,-5.983499E-3,-5.217991E-2,5.7954583E-3,-4.333377E-3,1.6565657E-1,2.874459E-1,2.8684327E-2,1.5619416E-2,1.3548175E-1,1.0863561E-2,7.83778E-2,8.1645176E-2,3.378752E-2,1.2294372E-1,-1.7386362E-2,3.288961E-2,1.1590907E-2,8.522764E-4,1.0753084E-1,2.3437506E-2,-4.6892535E-2,4.993832E-2,5E-1,5.3713933E-2,5E-1,-7.058336E-2,4.665439E-2,4.6596515E-1,2.8665224E-1,1.5650892E-3,3.8150977E-2,1.819252E-1,1.1590907E-2,-2.2027416E-2,2.5E-1,8.472538E-1,8.1747495E-2,1.6125542E-1,5.7540048E-2,2.8852057E-2,-2.4272727E-2,-8.639846E-2,5.376752E-2,-7.376452E-2,4.5454543E-2,-7.5961147E-3,1.4357865E-1,4.1219994E-1,-5.7954537E-3,-2.3181818E-2,2.2821441E-1,2.4297474E-1,2.8977273E-2,-4.727273E-2,6.877187E-2,1.1868222E-2,1.52886E-1,1.07720055E-1,1.06088564E-1,3.0746466E-2,1.0403241E-2,3.6549438E-2,-1.7386362E-2,-7.474675E-2,1.7243868E-1,-9.357956E-3,3.221591E-2,2.4639249E-1,2.1883118E-1,3.1499997E-2,1.0307266E-2,1.325443E-2,4.5699686E-2,2.5E-1,5.6926405E-1,1.0818809E-1,8.66323E-2,5E-1,3.6652237E-1,3.2474747E-1,1.7519793E-1,1.6121168E-2,8.85191E-3,1.1435786E-1,2.3389158E-1,-4.9455065E-2,2.4681823E-2,5E-1,7.612628E-2,2.9946068E-1,5E-1,3.4126985E-1,3.6013916E-2,6.4123645E-2,-5.0267044E-2,3.1240982E-1,1.5829727E-1,2.1432023E-2,4.856196E-2,1.0637241E-1,5.3964052E-2,3.1435788E-1,-5.0430566E-2,5.364358E-1,1.6557053E-1,-9.994989E-2,-6.987922E-2,3.04329E-1,5E-1,2.8806314E-1,-1.7969742E-2,-8.188563E-2,3.5209236E-1,5.8508374E-2,5E-1,8.368625E-2,-4.490909E-2,8.387037E-2,1.9648142E-1,2.273062E-1,-9.264938E-2,1.2337662E-1,2.9251075E-1,1.673725E-1,3.831169E-1,3.3695452E-2,4.09249E-2,9.7495854E-2,3.3477634E-1,3.388112E-2,4.4588745E-1,-8.453387E-2,2.973776E-2,-5.5804197E-2,5.5238446E-3,6.854921E-3,1.0046038E-1,5.014798E-2,5.5300985E-2,2.1147943E-1,-1.2181819E-2,-3.3011366E-2,4.4963926E-1,-1.7792926E-3,8.8277034E-2,3.1485915E-2,1.4104217E-1,1.7086146E-2,1.7492175E-2,1.07530415E-1,4.2063493E-1,4.005772E-1,6.103848E-2,2.0503125E-1,3.0981243E-1,4.2897072E-1,2.4191919E-1,1.994228E-1,-2.948052E-2,-7.464935E-2,-7.770966E-2,9.795618E-2,-1.5852273E-2,-9.59665E-2,-0E0,-1.0909094E-2,-5.7954537E-3,-6.909091E-2,-8.224676E-2,-2.3181818E-2,-4.438637E-2,5E-1,2.1067291E-1,1.0424203E-1,1.078013E-1,4.3546308E-2,1.7386366E-2,6.395455E-2,-7.979404E-2,6.2215943E-3,-1.7727274E-2,2.0454526E-3,1.1590907E-2,-1.4642167E-2,-6.0188133E-2,-7.097494E-2,-7.4261375E-2,5.6235893E-3,-7.074267E-2,-1.8236281E-2,4.5806002E-2,-3.75E-2,-5.8543395E-2,-1.6694218E-2,-6.2292423E-2,-5.878598E-4,1.0227272E-2,6.660924E-2,3.4090923E-3,3.294034E-2,3.75E-2,-6.5898806E-2,-7.9112686E-2,-1.7969742E-2,-5.4166634E-3,-3.0352639E-2,8.3666975E-3,5.0118882E-2,-3.5646085E-2,-7.648344E-2,-4.007441E-2,2.2727281E-3,6.4112E-2,5.7954537E-3,-5.7009473E-2,2.484803E-3,4.8357774E-2,-1.6422302E-3,-2.505974E-2,1.1129081E-3,-1.11515615E-2,-4.9822643E-2,1.50479665E-2,1.4116019E-3,-6.3433714E-2,-8.119596E-2,-1.3917796E-3,-6.76641E-2,-2.1682257E-2,-7.983373E-2,-1.2690618E-2,-5.359971E-2,2.186615E-2,-8.109869E-3,-5.507152E-2,7.6528657E-3,1.4116019E-3,9.493008E-3,-3.3195984E-2,-5.406578E-3,-7.368724E-2,-1.9508798E-2,4.839562E-2,-7.28826E-2,-1.6619649E-2,-5.4964907E-2,1.6573034E-2,-6.6217855E-2,-8.662138E-2,-5.3957272E-2,-1.5572724E-2,2.5454551E-2,-7.46211E-2,-5.313348E-2,-8.474663E-2,-2.5340911E-2,3.745374E-2,-7.9936E-2,-7.691675E-2,2.9829564E-3,6.2459395E-3,-6.9989175E-2,3.2699957E-2,-1.7314496E-2,-7.583677E-2,-7.2749173E-3,-5.024691E-2,2.5847906E-2,-7.5151816E-2,-2.1875588E-2,-1.9699015E-2,-3.7679228E-4,-5.7829395E-2,8.961041E-3,-7.7020235E-2,2.4443455E-2,-1.4013157E-2,-8.7904796E-2,1.1993323E-2,-5.712069E-2,-4.9263913E-2,-7.004719E-2,-3.7937555E-2,-8.152314E-2,-7.989147E-2,-1.4590909E-2,-8.863637E-3,-7.167536E-2,6.511364E-2,-1.2181819E-2,-4.272575E-2,1.4686148E-2,1.1454544E-2,-7.152999E-2,-3.5161562E-2,-8.38225E-2,-1.8000552E-2,-5.7216875E-2,2.456516E-2,-7.2448626E-2,-3.5242762E-2,1.6316017E-2,5.8927625E-2,8.459936E-3,-8.304065E-2,2.3492002E-3,-6.262182E-2,-4.7703393E-2,1.9850586E-2,-4.9773183E-2,4.056818E-2,5.7954583E-3,-1.2272725E-2,-4.6363637E-2,-4.0404245E-2,-7.50405E-2,4.7727292E-3,5.163637E-2,-5.246002E-2,5.376752E-2,-5.7245675E-2,7.191082E-2,-7.874101E-2,-9.092718E-3,-2.2915896E-2,-6.1350968E-2],"split_indices":[5,7,7,6,0,10,2,10,4,6,9,7,7,8,8,0,10,9,8,10,0,0,2,0,0,0,10,6,8,1,0,9,8,5,0,0,10,0,7,8,10,0,0,0,0,10,8,0,0,0,0,0,0,9,10,7,9,10,10,0,0,7,7,0,8,0,8,6,7,5,6,0,0,0,0,6,0,0,0,3,0,7,7,0,6,0,10,0,0,0,8,6,6,6,0,0,0,0,3,7,0,10,10,7,10,6,0,9,8,0,0,0,0,0,0,6,0,0,0,0,0,0,0,10,2,0,0,0,0,0,0,0,0,0,6,2,6,9,0,6,6,6,0,7,0,1,7,0,0,2,0,3,8,7,0,8,8,6,0,6,6,0,10,0,10,5,6,6,7,7,2,10,0,3,0,0,7,6,0,6,0,0,0,0,0,0,0,0,7,6,8,10,9,8,0,0,0,0,0,8,0,0,0,1,9,4,0,9,6,0,8,0,7,0,0,2,10,9,0,8,9,0,0,0,0,0,0,0,6,0,0,6,10,0,0,8,9,0,0,10,6,8,8,0,0,0,0,0,0,0,0,10,7,10,5,0,6,8,4,0,0,8,0,0,0,10,0,0,3,6,10,1,0,9,6,0,0,0,7,0,10,0,0,0,0,6,0,0,0,3,6,0,0,0,10,1,8,0,8,6,8,0,0,9,8,0,8,9,8,0,0,0,0,0,0,8,9,6,6,0,9,0,0,0,0,10,8,8,9,8,6,0,0,8,6,0,6,0,0,0,0,0,8,0,0,0,0,0,0,0,0,0,3,7,6,7,8,0,0,0,0,0,0,0,0,0,0,0,0,0,0,0,0,0,0,0,0,0,0,0,0,0,0,0,0,0,0,0,0,0,0,0,0,0,0,0,0,0,0,0,0,0,0,0,0,0,0,0,0,0,0,0,0,0,0,0,0,0,0,0,0,0,0,0,0,0,0,0,0,0,0,0,0,0,0,0,0,0,0,0,0,0,0,0,0,0,0,0,0,0,0,0,0,0,0,0,0,0,0,0,0,0,0,0,0,0,0,0,0,0,0,0,0,0,0,0,0,0,0,0,0,0,0,0,0,0,0,0,0,0,0,0,0,0,0,0,0,0,0,0,0,0,0,0,0,0,0],"split_type":[0,0,0,0,0,0,0,0,0,0,0,0,0,0,0,0,0,0,0,0,0,0,0,0,0,0,0,0,0,0,0,0,0,0,0,0,0,0,0,0,0,0,0,0,0,0,0,0,0,0,0,0,0,0,0,0,0,0,0,0,0,0,0,0,0,0,0,0,0,0,0,0,0,0,0,0,0,0,0,0,0,0,0,0,0,0,0,0,0,0,0,0,0,0,0,0,0,0,0,0,0,0,0,0,0,0,0,0,0,0,0,0,0,0,0,0,0,0,0,0,0,0,0,0,0,0,0,0,0,0,0,0,0,0,0,0,0,0,0,0,0,0,0,0,0,0,0,0,0,0,0,0,0,0,0,0,0,0,0,0,0,0,0,0,0,0,0,0,0,0,0,0,0,0,0,0,0,0,0,0,0,0,0,0,0,0,0,0,0,0,0,0,0,0,0,0,0,0,0,0,0,0,0,0,0,0,0,0,0,0,0,0,0,0,0,0,0,0,0,0,0,0,0,0,0,0,0,0,0,0,0,0,0,0,0,0,0,0,0,0,0,0,0,0,0,0,0,0,0,0,0,0,0,0,0,0,0,0,0,0,0,0,0,0,0,0,0,0,0,0,0,0,0,0,0,0,0,0,0,0,0,0,0,0,0,0,0,0,0,0,0,0,0,0,0,0,0,0,0,0,0,0,0,0,0,0,0,0,0,0,0,0,0,0,0,0,0,0,0,0,0,0,0,0,0,0,0,0,0,0,0,0,0,0,0,0,0,0,0,0,0,0,0,0,0,0,0,0,0,0,0,0,0,0,0,0,0,0,0,0,0,0,0,0,0,0,0,0,0,0,0,0,0,0,0,0,0,0,0,0,0,0,0,0,0,0,0,0,0,0,0,0,0,0,0,0,0,0,0,0,0,0,0,0,0,0,0,0,0,0,0,0,0,0,0,0,0,0,0,0,0,0,0,0,0,0,0,0,0,0,0,0,0,0,0,0,0,0,0,0,0,0,0,0,0,0,0,0,0,0,0,0,0,0,0,0,0,0,0,0,0,0,0,0,0,0,0,0,0,0,0,0,0,0,0,0,0,0,0,0,0,0,0,0,0,0,0,0,0,0,0,0,0,0,0,0,0,0,0,0,0,0,0,0,0,0,0],"sum_hessian":[4.982E3,3.544E3,1.438E3,1.412E3,2.132E3,2E1,1.418E3,7.28E2,6.84E2,8.85E2,1.247E3,1E1,1E1,8.83E2,5.35E2,6.36E2,9.2E1,4.85E2,1.99E2,8.83E2,2E0,2E0,1.245E3,8E0,2E0,3E0,7E0,8.58E2,2.5E1,5.31E2,4E0,4.98E2,1.38E2,9E1,2E0,4.76E2,9E0,5E1,1.49E2,8.16E2,6.7E1,1E0,1E0,1E0,1E0,1E2,1.145E3,7E0,1E0,1E0,1E0,6E0,1E0,3.15E2,5.43E2,7E0,1.8E1,2.1E2,3.21E2,1E0,3E0,1.9E1,4.79E2,1.8E1,1.2E2,5.4E1,3.6E1,4.64E2,1.2E1,3E0,6E0,4.8E1,2E0,3E0,1.46E2,8.11E2,5E0,2E0,6.5E1,4E0,9.6E1,1.26E2,1.019E3,4.2E1,2.73E2,4.7E1,4.96E2,5E0,2E0,4E0,1.4E1,2.03E2,7E0,3.2E2,1E0,2E0,1E0,8E0,1.1E1,4.77E2,2E0,4.5E1,7.5E1,3E1,2.4E1,2.3E1,1.3E1,4.36E2,2.8E1,9E0,3E0,1E0,2E0,4E0,2E0,3.5E1,1.3E1,1E0,1E0,1E0,2E0,2E0,1.44E2,9.3E1,7.18E2,3E0,2E0,1E0,1E0,2E0,6.3E1,3E0,1E0,5E0,9.1E1,6E0,1.2E2,9.84E2,3.5E1,3E0,3.9E1,8E1,1.93E2,4.4E1,3E0,3E0,4.93E2,2E0,2E0,1.3E1,1E0,3E0,2E2,6E0,1E0,1.8E1,3.02E2,7E0,1E0,6E0,5E0,3E0,4.74E2,2.9E1,1.6E1,1.3E1,6.2E1,2.5E1,5E0,9E0,1.5E1,1.1E1,1.2E1,9E0,4E0,4E0,4.32E2,2.3E1,5E0,7E0,2E0,1E0,3E0,1E0,1E0,2.7E1,8E0,1E0,1.2E1,2.6E1,1.18E2,8.5E1,8E0,2.84E2,4.34E2,1E0,2E0,1E0,1E0,6.2E1,1E0,3E0,2E0,2.5E1,6.6E1,3E0,3E0,1.17E2,3E0,2.7E1,9.57E2,2E0,3.3E1,1E0,2E0,4E0,3.5E1,1.2E1,6.8E1,6.6E1,1.27E2,1E0,4.3E1,1E0,2E0,2E0,1E0,2.3E1,4.7E2,1E0,1E0,4E0,9E0,1E0,2E0,1.81E2,1.9E1,3E0,3E0,8E0,1E1,4.4E1,2.58E2,1E0,6E0,4E0,2E0,1E0,4E0,2E0,1E0,3E0,4.71E2,1.2E1,1.7E1,1.1E1,5E0,9E0,4E0,2E0,6E1,2.4E1,1E0,2E0,3E0,7E0,2E0,1E0,1.4E1,3E0,8E0,8E0,4E0,4E0,5E0,2E0,2E0,3.49E2,8.3E1,1E0,2.2E1,3E0,2E0,3E0,4E0,4E0,2.3E1,6E0,2E0,5E0,7E0,1E0,2.5E1,8E0,1.1E2,2.6E1,5.9E1,2E0,6E0,1.61E2,1.23E2,1.22E2,3.12E2,4.9E1,1.3E1,7E0,1.8E1,7E0,5.9E1,2E0,1E0,1E1,1.07E2,1E0,2E0,1.2E1,1.5E1,1.9E1,9.38E2,1E0,3.2E1,2E0,2E0,3.4E1,1E0,7E0,5E0,1.8E1,5E1,3.3E1,3.3E1,2.7E1,1E2,8E0,1.5E1,4.24E2,4.6E1,2E0,2E0,5E0,4E0,1.02E2,7.9E1,1E0,1.8E1,1E0,2E0,1E0,2E0,6E0,2E0,3E0,7E0,4E1,4E0,6.3E1,1.95E2,1E0,3E0,3E0,1E0,1E0,1E0,1E0,2E0,1.93E2,2.78E2,2E0,1E1,1.1E1,6E0,1E1,1E0,3E0,2E0,7E0,2E0,1E0,3E0,1E0,1E0,1E0,5.9E1,2.3E1,1E0,1E0,2E0,4E0,3E0,1E1,4E0,1E0,2E0,5E0,3E0,7E0,1E0,2E0,2E0,2E0,2E0,1E0,4E0,1E0,1E0,6.4E1,2.85E2,4E0,7.9E1,4E0,1.8E1,1E0,1E0,1E0,3E0,3E0,1E0,1E0,1E0,4E0,1E0,6E0,1E0,5E0,3E0,1.5E1,9.5E1,5E0,2.1E1,4.2E1,1.7E1,4E0,2E0,9.8E1,6.3E1,1.21E2,2E0,1E0,3.11E2,4.8E1,1E0,5E0,8E0,5E0,2E0,1.2E1,6E0,5E0,2E0,5.6E1,3E0,1E0,1E0,9E0,1E0,2E0,1E1,1E0,1.4E1,4E0,1.5E1,2.2E1,9.16E2,1.8E1,1.4E1,3.3E1,1E0,3E0,4E0,3E0,2E0,1.5E1,3E0,1E0,4.9E1,1E1,2.3E1,2.1E1,1.2E1,2.3E1,4E0,8.7E1,1.3E1,3E0,5E0,1E1,5E0,3.31E2,9.3E1,8E0,3.8E1,1E0,1E0,1E0,1E0,3.1E1,4.8E1,5E0,2E0,3.9E1,1E0,1E0,3E0,6.1E1,2E0,1.6E1,1.79E2],"tree_param":{"num_deleted":"0","num_feature":"11","num_nodes":"507","size_leaf_vector":"0"}},{"base_weights":[-1.506494E-1,-1.5923126E-1,-1.2940313E-1,-1.7123677E-1,-1.4934601E-1,-1.1977655E-1,-1.5247388E-1,-1.3118143E-1,-1.7500332E-1,-1.0386953E-1,-1.5436281E-1,-1.2043458E-1,2.7537996E-1,-1.6135865E-1,-4.3390043E-2,-1.4294915E-1,-4.282714E-2,-1.7675833E-1,-1.0854455E-1,-1.6281769E-1,-8.53466E-2,-1.6504304E-1,-1.3442893E-1,-2.3473713E-1,-1.1791127E-1,-1.7056215E-1,-1.1021513E-1,1.89455E-2,-1.03173226E-1,-2.4441326E-2,-1.6027954E-1,1.0663346E-1,-1.7305897E-1,-1.7774643E-1,-5.6522492E-2,1.8062499E-1,-1.2059057E-1,-1.9553813E-1,-7.406108E-2,-5.8395572E-2,-1.3458729E-1,8.056054E-2,-1.6619699E-1,-1.2048032E-1,-1.5759718E-1,-1.1737313E-1,-2.6407757E-1,3.489826E-3,-1.2014237E-1,-7.604317E-2,-1.7614597E-1,3.2215755E-2,-1.2892844E-1,1.434984E-1,-4.4909745E-2,-1.4553842E-1,7.0898235E-2,-1.0137319E-1,1.3349596E-1,-1.3324858E-1,-1.9129226E-1,3.0832303E-1,-4.5598477E-2,-2.1325113E-1,9.43352E-2,-1.5921919E-1,-1.8343148E-1,9.364851E-2,-1.1093864E-1,-2.3690762E-2,-1.7390683E-1,3.1457707E-2,-2.0361482E-1,2.6067575E-2,-1.3258451E-1,1.4150569E-1,-6.819881E-2,-2.2638011E-1,-9.58314E-2,1.6044684E-2,1.3972817E-1,-1.5484825E-1,-1.8329261E-1,-1.3161816E-1,-5.170081E-2,-1.6162494E-1,-4.1182797E-2,-1.5515375E-1,3.5764992E-2,-1.0554609E-1,9.238377E-2,-1.2295301E-1,-2.6946746E-2,-1.14166304E-1,1.04990944E-1,-4.461704E-2,-1.7905656E-1,-1.2488628E-1,1.05397485E-1,-1.6280952E-1,-5.6163758E-2,1.9260949E-1,-5.102849E-2,-1.294974E-1,1.3571249E-2,-2.1554734E-1,-4.4737015E-2,1.166522E-1,-3.318183E-2,1.2777257E-1,-1.9195205E-1,1.5588479E-1,1.0775894E-2,-1.91986E-1,-6.1814677E-2,-1.3214907E-1,-2.1175858E-1,3.4499124E-2,-6.851782E-2,-1.6323203E-1,-6.2194735E-2,-1.7442642E-1,-1.9497973E-1,1.4316516E-1,-2.745071E-2,-1.5545529E-1,-3.5330925E-2,2.01041E-1,-9.6627116E-2,-1.935993E-1,3.5037663E-2,-2.4251439E-1,-1.1857266E-1,9.106913E-2,-1.494701E-1,-1.5157235E-1,9.659097E-3,1.682074E-1,1.7349407E-2,5.9830908E-2,-8.378169E-2,-2.3926522E-1,-9.508463E-2,-1.2932368E-1,1.5778086E-1,2.0868272E-2,7.869601E-4,-1.586183E-1,-8.21622E-2,-2.3963201E-1,-1.7670295E-1,-5.4156322E-2,-1.396202E-1,1.2165963E-1,-7.108242E-2,-2.0191312E-1,-1.4200784E-1,1.6038309E-1,-1.6869625E-1,-1.7752174E-1,-3.2840922E-2,1.6420454E-2,-1.22844465E-1,-6.1427556E-2,1.5774146E-1,-1.1908499E-1,-1.765571E-1,-5.9158415E-2,1.4594328E-1,8.8652045E-2,-1.471189E-1,6.785332E-2,-1.7405072E-1,-1.9039544E-1,-1.3891825E-1,-1.487459E-1,-3.8583532E-2,1.8202066E-2,1.19196154E-1,-1.1653738E-1,-2.1625812E-1,4.939298E-4,-2.1490407E-1,-7.2816886E-2,-1.781097E-1,-6.1338108E-2,4.8764054E-2,-2.4038918E-1,-2.0827249E-2,8.98006E-2,-1.1651218E-1,1.5958388E-1,1.6169295E-2,-2.0444456E-1,-4.600604E-2,4.6003178E-2,1.7185439E-1,-1.4934303E-1,-2.5416592E-1,-1.4791793E-1,7.6651475E-3,-1.7101641E-1,8.032572E-2,-2.301349E-1,-8.764659E-2,-8.971138E-2,8.128211E-3,-1.7822969E-1,-1.3039662E-1,-1.4978153E-1,1.4293516E-1,-3.9150596E-2,-1.7570752E-1,2.1010062E-2,-1.9597095E-1,-6.464837E-2,-1.8469667E-1,-9.298339E-2,2.3280382E-3,5.1177442E-2,2.3393637E-1,1.255464E-1,-1.5361646E-1,-2.1962552E-1,-8.3254054E-2,-3.9731644E-2,9.228814E-2,-2.575596E-1,-1.1418237E-1,-5.066029E-2,-1.7804165E-1,-1.6419809E-1,-3.1596094E-2,1.0289025E-1,-8.929077E-2,-8.972679E-2,2.1077588E-1,-6.475571E-2,-2.4841136E-1,1.65128E-1,-1.4284073E-1,9.460524E-3,1.9249582E-1,-1.6233452E-1,-6.986944E-2,-9.9426284E-2,2.6104036E-1,-4.612372E-2,-2.4305955E-1,-1.7032567E-1,-2.4109308E-1,-9.581396E-2,6.757671E-2,-1.2607221E-1,-1.8458647E-1,-7.928525E-2,1.7770566E-1,1.0087651E-1,-9.625197E-2,-1.2851574E-1,-2.1639821E-1,-1.1653871E-1,-1.9997802E-1,-1.8338388E-1,-4.762908E-2,-1.8224433E-2,-6.975379E-2,1.755844E-1,1.6420454E-2,-1.3903043E-1,-1.0432032E-1,-1.8337314E-1,1.19610935E-1,6.3047096E-2,-9.8972425E-2,-1.879405E-2,-1.9207391E-1,7.1401396E-3,1.0594872E-1,-2.1178344E-1,-3.0426279E-2,-1.9550475E-1,-9.687172E-2,-1.4846611E-1,1.238059E-1,-1.3328269E-1,1.17557034E-1,1.7229289E-2,-2.3297258E-1,7.959276E-2,-1.3141978E-1,8.771221E-2,-7.298837E-2,-4.926136E-2,-2.1957624E-1,-1.0355656E-1,-1.9393112E-1,-2.0659977E-1,3.5766147E-2,1.2555617E-1,-1.4065677E-1,-2.469039E-2,-1.9537656E-1,1.8524429E-1,-6.475571E-2,-2.4172796E-1,-9.724629E-2,3.7776187E-2,-1.20286375E-1,-2.4475992E-1,-1.6424426E-1,-6.893609E-2,-1.6715793E-1,-5.8637876E-2,-1.9348678E-1,6.618271E-3,2.3160699E-1,5.2682698E-2,-1.7915589E-1,-1.6280478E-1,-1.9176884E-1,-1.3258159E-3,3.2840908E-2,-1.455618E-1,-1.9929752E-1,1.8600076E-2,-2.3244038E-2,-2.2060965E-1,-4.2501338E-2,-2.3482455E-1,-1.0772276E-1,5.7712644E-3,-1.7420313E-1,-5.8561012E-2,-2.6582062E-1,-2.6738226E-2,-1.3441768E-1,-8.9574315E-2,-1.7179817E-2,-3.6902696E-2,-1.988889E-1,1.4003558E-1,2.1449707E-2,-1.4416343E-1,1.0227278E-2,-9.67821E-2,7.733875E-2,-1.5090096E-1,6.1573356E-2,-1.8413597E-1,-1.5519905E-1,-1.2862284E-1,9.309192E-2,-1.2969479E-2,-1.8035941E-1,-1.7532563E-1,-9.072938E-2,-2.6821408E-1,-1.1942309E-1,3.735321E-2,-1.3097341E-1,1.652719E-1,1.6053531E-2,-1.3369207E-1,-1.2943355E-2,2.6232374E-1,-1.9517204E-1,2.0336106E-1,3.754203E-2,1.6963714E-1,6.8967566E-3,1.3922611E-1,-1.1638674E-1,-2.0128891E-1,-4.877474E-2,-2.197112E-1,-1.5435144E-2,-1.2306792E-1,8.3987765E-2,-2.0739423E-1,6.316735E-2,-1.6066767E-1,-1.17457926E-1,-9.257317E-2,-1.6279614E-1,-2.505839E-1,-1.418229E-1,-1.3994806E-1,1.202043E-1,4.0539247E-3,-1.4341614E-1,1.3793349E-2,-4.5116767E-2,-2.2306623E-1,5.8924556E-2,-2.0013143E-1,-8.9824654E-2,1.2625757E-1,-1.445814E-1,-1.8213004E-1,-9.3870126E-2,-1.5481572E-1,4.7520775E-2,-2.4464594E-1,-3.4772724E-2,-7.307496E-2,1.935504E-1,-1.6420454E-2,-1.5113555E-1,-2.3468818E-1,-6.4452335E-2,-1.4373834E-1,-1.0518047E-2,-2.2263977E-1,-5.2731037E-2,-5.372395E-2,-2.3810323E-1,2.6355585E-1,-1.0369596E-2,-1.5008593E-1,-3.732633E-2,-7.1848035E-3,-2.9850781E-2,-2.1275729E-1,-1.0784626E-2,-1.3197568E-1,-2.5568405E-1,-1.4371745E-1,2.1083593E-2,-3.3374958E-2,-1.336705E-1,-5.022727E-2,-2.4888293E-1,-1.7573194E-1,-1.103187E-1,-1.413709E-1,4.7210266E-5,-8.3442494E-2,-1.9744378E-1,7.630537E-3,-1.0536033E-1,-8.126638E-2,-2.2212166E-1,-5.610223E-2,9.390449E-2,-1.654777E-1,-1.1629607E-2,-1.9324669E-1,7.2754425E-4,7.8853406E-2,-1.804373E-1,-1.8251032E-1,-2.1095456E-1,2.5674298E-2,2.2258162E-3,1.6420454E-2,-6.1336897E-2,-5.31329E-2,-2.4400732E-1,-2.802682E-2,5.3582758E-2,-6.035389E-2,-2.7489018E-1,-2.889795E-2,2.6492277E-4,-8.653909E-3,3.4368884E-2,-1.17896855E-1,-3.3837464E-2,1.6640583E-2,1.2971662E-1,-7.2960906E-2,-1.7708844E-1,-1.6950007E-1,-2.6527384E-1,7.982998E-2,-1.5685152E-1,-5.454453E-2,-2.0465453E-1,-8.483591E-2,2.168158E-1,1.3083681E-1,-5.0453193E-2,-2.689255E-1,-1.136659E-1,-2.6268095E-1,-1.6976479E-1,1.3491672E-1,-1.4260443E-1,-1.8667758E-2,-2.7709404E-1,-1.4883792E-1,4.3240383E-2,1.2345366E-1,-8.989846E-2,6.2728375E-2,-1.4446974E-1,4.927606E-2,-2.118238E-2,-1.1338073E-1,-1.9593596E-1,-1.4667447E-1,8.196276E-2,-1.2913595E-1,-2.1017902E-1,-1.51898265E-2,1.9322226E-2,-1.873399E-1,-7.421945E-2,-2.8346708E-2,-9.588548E-2,-2.3901461E-1,-1.761572E-1,-1.0595782E-1,-1.9493693E-1,1.9105886E-1,-1.1861275E-1,-2.228294E-1,-9.397556E-2,7.140151E-2,-1.6359411E-1,-6.463531E-2,-1.6540839E-1,-1.0212217E-1,3.5600208E-3,-1.7351772E-1,1.880995E-1,-3.351294E-2,-1.8704458E-1,3.6090393E-2,1.5323865E-1,-1.2706405E-1,1.3415843E-1,6.7129314E-2,-1.6477573E-1,-2.5661555E-1,-5.9245963E-2,-1.9011737E-1,-2.662302E-1,1.6393538E-1,-1.6443081E-1,1.6771159E-1,2.1674767E-2,-2.059283E-1,-4.8913117E-2,-1.2600288E-1,-2.2487609E-1,-1.4318028E-2,-1.5263933E-1,-1.16368696E-1,-2.1872285E-1,-3.7716478E-3,7.505281E-2,-2.6844847E-1,-1.1802746E-1,-1.6970754E-2,-1.487459E-1,4.5037463E-2,2.142455E-1],"categories":[],"categories_nodes":[],"categories_segments":[],"categories_sizes":[],"default_left":[true,true,true,true,true,true,true,true,true,true,true,true,false,true,true,true,true,true,true,true,true,true,true,true,true,true,true,true,true,true,true,true,true,true,true,false,true,true,true,true,true,true,true,true,true,true,false,true,true,true,true,true,true,true,true,true,true,true,true,true,true,false,true,false,false,true,true,true,true,true,true,false,true,true,true,true,true,true,true,true,false,true,true,true,true,true,true,true,false,true,true,true,true,true,false,true,true,true,true,true,true,false,false,true,true,true,true,false,false,true,true,true,false,true,true,true,true,false,true,true,true,true,true,false,false,true,true,true,true,true,true,true,true,false,false,true,false,false,false,true,true,true,false,true,true,false,false,true,true,true,true,true,true,true,true,true,true,false,true,false,false,false,false,true,true,true,true,true,false,false,true,true,true,true,true,false,false,false,false,true,true,true,false,false,false,false,true,false,false,false,false,false,false,true,false,false,false,true,false,true,true,true,true,true,true,false,false,true,true,true,true,true,true,true,true,false,false,false,true,false,false,false,true,true,true,false,false,true,true,true,true,false,false,true,true,true,false,false,false,false,true,false,false,true,true,true,false,false,false,true,true,true,true,true,true,false,true,true,true,true,true,true,true,false,false,false,false,false,false,true,true,true,false,true,true,true,true,false,false,false,false,true,true,true,false,true,false,false,true,true,true,false,false,false,true,true,true,true,false,true,true,true,true,false,false,true,true,false,true,true,true,true,true,true,true,false,false,true,false,true,true,false,false,true,true,true,false,false,true,true,false,true,false,false,true,false,false,false,true,false,false,false,true,false,false,true,true,true,false,true,true,true,true,true,true,true,true,true,true,true,true,false,true,true,true,false,true,false,false,false,true,false,true,false,true,true,false,true,true,true,false,true,true,true,true,false,true,false,true,true,true,false,false,true,false,true,true,true,true,true,true,true,true,true,false,true,true,false,false,false,false,false,false,false,false,false,false,false,false,false,false,false,false,false,false,false,false,false,false,false,false,false,false,false,false,false,false,false,false,false,false,false,false,false,false,false,false,false,false,false,false,false,false,false,false,false,false,false,false,false,false,false,false,false,false,false,false,false,false,false,false,false,false,false,false,false,false,false,false,false,false,false,false,false,false,false,false,false,false,false,false,false,false,false,false,false,false,false,false,false,false,false,false,false,false,false,false,false,false,false,false,false,false,false,false,false,false,false,false,false,false,false,false,false,false,false,false,false,false,false,false,false,false,false,false,false,false,false,false,false,false,false,false,false,false,false,false,false,false,false,false,false,false,false,false,false,false,false,false],"id":2,"left_children":[1,3,5,7,9,11,13,15,17,19,21,23,-1,25,27,29,31,33,35,37,39,41,43,45,47,49,51,53,55,57,59,61,63,65,67,-1,69,71,73,75,77,79,81,83,85,87,-1,89,91,93,95,97,99,101,103,105,107,109,111,113,115,-1,117,-1,-1,119,121,123,125,127,129,-1,131,133,135,137,139,141,143,145,-1,147,149,151,153,155,157,159,-1,161,163,165,167,169,-1,171,173,175,177,179,181,-1,-1,183,185,187,189,-1,-1,191,193,195,-1,197,199,201,203,-1,205,207,209,211,213,-1,-1,215,217,219,221,223,225,227,229,-1,-1,231,-1,-1,-1,233,235,237,-1,239,241,-1,-1,243,245,247,249,251,253,255,257,259,261,-1,263,-1,-1,-1,-1,265,267,269,271,273,-1,-1,275,277,279,281,283,-1,-1,-1,-1,285,287,289,-1,-1,-1,-1,291,-1,-1,-1,-1,-1,-1,293,-1,-1,-1,295,-1,297,299,301,303,305,307,-1,-1,309,311,313,315,317,319,321,323,-1,-1,-1,325,-1,-1,-1,327,329,331,-1,-1,333,335,337,339,-1,-1,341,343,345,-1,-1,-1,-1,347,-1,-1,349,351,353,-1,-1,-1,355,357,359,361,363,365,-1,367,369,371,373,375,377,379,-1,-1,-1,-1,-1,-1,381,383,385,-1,387,389,391,393,-1,-1,-1,-1,395,397,399,-1,401,-1,-1,403,405,407,-1,-1,-1,409,411,413,415,-1,417,419,421,423,-1,-1,425,427,-1,429,431,433,435,437,439,441,-1,-1,443,-1,445,447,-1,-1,449,451,453,-1,-1,455,457,-1,459,-1,-1,461,-1,-1,-1,463,-1,-1,-1,465,-1,-1,467,469,471,-1,473,475,477,479,481,483,485,487,489,491,493,495,-1,497,499,501,-1,503,-1,-1,-1,505,-1,507,-1,509,511,-1,513,515,517,-1,519,521,523,525,-1,527,-1,529,531,533,-1,-1,535,-1,537,539,541,543,545,547,549,551,553,-1,555,557,-1,-1,-1,-1,-1,-1,-1,-1,-1,-1,-1,-1,-1,-1,-1,-1,-1,-1,-1,-1,-1,-1,-1,-1,-1,-1,-1,-1,-1,-1,-1,-1,-1,-1,-1,-1,-1,-1,-1,-1,-1,-1,-1,-1,-1,-1,-1,-1,-1,-1,-1,-1,-1,-1,-1,-1,-1,-1,-1,-1,-1,-1,-1,-1,-1,-1,-1,-1,-1,-1,-1,-1,-1,-1,-1,-1,-1,-1,-1,-1,-1,-1,-1,-1,-1,-1,-1,-1,-1,-1,-1,-1,-1,-1,-1,-1,-1,-1,-1,-1,-1,-1,-1,-1,-1,-1,-1,-1,-1,-1,-1,-1,-1,-1,-1,-1,-1,-1,-1,-1,-1,-1,-1,-1,-1,-1,-1,-1,-1,-1,-1,-1,-1,-1,-1,-1,-1,-1,-1,-1,-1,-1,-1,-1,-1,-1,-1,-1,-1,-1,-1,-1],"loss_changes":[8.879547E-1,3.951416E-1,3.0132675E-1,2.1752548E-1,4.2930603E-1,2.983923E-1,4.0005684E-1,1.4047956E-1,1.5040207E-1,2.0120668E-1,3.516655E-1,2.6622295E-1,0E0,1.6383362E-1,1.2493305E-1,2.507522E-1,3.688154E-1,1.5806198E-1,1.6111523E-1,1.1910939E-1,1.9385791E-1,3.361988E-1,1.8072796E-1,4.131818E-2,2.7100658E-1,1.5918827E-1,1.6940546E-1,1.4165154E-1,1.3568608E-1,2.2008985E-1,6.50475E-2,2.9039136E-1,1.2758857E-1,1.1856842E-1,1.166217E-1,0E0,1.9736713E-1,6.690657E-2,8.549436E-2,2.056185E-1,1.6685385E-1,2.0661607E-2,1.9162941E-1,2.9195595E-1,1.00718975E-1,4.026299E-2,0E0,1.9391076E-1,2.5364876E-1,1.5001819E-1,1.099205E-1,1.0513869E-1,1.2645006E-1,6.7149125E-2,6.1118677E-2,8.915505E-2,2.2919035E-2,2.7359536E-1,1.4805555E-2,2.4407876E-1,3.0117631E-2,0E0,1.3378512E-2,0E0,0E0,1.2105656E-1,7.695007E-2,2.7915694E-2,2.8165646E-2,2.6529276E-1,1.0964906E-1,0E0,7.7103734E-2,8.207344E-2,2.577214E-2,1.3657637E-2,1.9653961E-1,2.6258826E-3,3.516729E-1,2.7796545E-4,0E0,1.7550087E-1,1.2360859E-1,2.0008993E-1,1.9680807E-1,1.4599133E-1,2.5837728E-1,7.84947E-3,0E0,2.100557E-2,1.2026996E-1,1.7636395E-1,1.7570606E-1,1.2665999E-1,0E0,1.2826954E-1,1.1054325E-1,4.383102E-4,5.049467E-3,6.630558E-2,1.7098947E-1,0E0,0E0,8.074567E-4,2.4081256E-2,3.369099E-2,7.805809E-2,0E0,0E0,1.1620626E-2,7.0033967E-3,8.679852E-4,0E0,4.9542785E-2,1.7462453E-1,1.3761196E-1,5.7374E-2,0E0,8.851204E-3,1.358223E-1,2.9090908E-1,9.866142E-2,1.0238457E-1,0E0,0E0,3.991574E-3,1.107213E-2,7.7470094E-3,1.7122427E-1,4.7768295E-2,1.6508495E-2,1.1137605E-2,3.944452E-2,0E0,0E0,6.9302768E-3,0E0,0E0,0E0,7.981905E-2,1.6951323E-1,4.66311E-3,0E0,1.6289109E-1,2.3923561E-2,0E0,0E0,2.0402336E-1,2.3925705E-1,1.797247E-2,1.2483215E-1,1.7382145E-1,1.6131687E-1,8.166241E-2,2.304442E-1,4.661107E-2,2.0111513E-1,0E0,1.934737E-3,0E0,0E0,0E0,0E0,1.676539E-4,1.7289475E-2,2.4788475E-1,1.4709258E-1,1.327427E-1,0E0,0E0,8.2922846E-2,1.0807976E-2,1.5233584E-2,9.192085E-2,1.939727E-1,0E0,0E0,0E0,0E0,1.0190791E-1,6.645578E-2,1.6697335E-1,0E0,0E0,0E0,0E0,3.4854162E-2,0E0,0E0,0E0,0E0,0E0,0E0,7.968873E-3,0E0,0E0,0E0,2.4830848E-2,0E0,1.4751524E-1,3.1491932E-1,4.1514874E-2,5.7660837E-2,2.1169782E-2,2.9106598E-2,0E0,0E0,1.6356897E-1,2.2571051E-1,3.2472372E-2,5.890449E-2,9.9438444E-2,9.374237E-2,8.3629787E-4,4.7626495E-2,0E0,0E0,0E0,2.09678E-3,0E0,0E0,0E0,6.506337E-2,5.3187013E-3,4.9585994E-2,0E0,0E0,1.4024138E-2,3.48375E-3,7.58115E-3,1.0314614E-2,0E0,0E0,2.42225E-2,1.7856859E-2,1.0767442E-1,0E0,0E0,0E0,0E0,6.531066E-2,0E0,0E0,6.8805695E-2,2.800607E-1,2.4256349E-1,0E0,0E0,0E0,1.3174248E-1,8.0162644E-2,1.2194438E-1,4.2648897E-2,2.0170784E-1,3.7289286E-1,0E0,1.0345176E-2,4.4064797E-2,2.295624E-1,7.1424246E-2,3.4558773E-2,1.517384E-1,1.0091972E-1,0E0,0E0,0E0,0E0,0E0,0E0,1.5663338E-1,3.3938217E-1,1.348114E-1,0E0,9.80408E-2,9.2158854E-2,4.9112556E-3,9.871331E-2,0E0,0E0,0E0,0E0,8.9102745E-2,1.6729046E-1,1.07881665E-1,0E0,8.911517E-2,0E0,0E0,2.619785E-2,1.8812022E-1,1.1122093E-2,0E0,0E0,0E0,1.2833178E-3,4.7088042E-2,2.8796613E-2,3.5369337E-2,0E0,1.903101E-1,2.1924078E-3,5.6535006E-5,3.299725E-2,0E0,0E0,6.080389E-3,2.5025789E-2,0E0,1.3549179E-3,1.6373634E-2,9.459782E-2,2.0487519E-1,1.4832544E-1,1.628507E-2,4.4429004E-3,0E0,0E0,2.76898E-2,0E0,1.3586617E-1,7.4959755E-2,0E0,0E0,2.6467907E-1,4.486084E-2,2.9035914E-4,0E0,0E0,6.556304E-3,1.20616555E-2,0E0,7.965501E-3,0E0,0E0,1.5088797E-2,0E0,0E0,0E0,1.0297546E-3,0E0,0E0,0E0,1.8530807E-3,0E0,0E0,1.0499358E-1,1.0558406E-2,5.44343E-2,0E0,1.3197756E-1,1.981659E-1,1.0711551E-1,1.9450513E-1,1.0362824E-1,7.575446E-2,1.244545E-1,3.0016947E-1,5.4658175E-2,4.471357E-2,7.683685E-2,6.1347604E-2,0E0,9.703283E-3,2.571857E-1,2.1509227E-1,0E0,3.925538E-2,0E0,0E0,0E0,1.391246E-3,0E0,1.1175567E-1,0E0,4.980998E-3,4.9774647E-3,0E0,1.08461976E-1,1.0943265E-1,5.6087494E-2,0E0,1.3732147E-1,4.756198E-1,3.9692903E-1,3.5242176E-1,0E0,1.8964982E-1,0E0,1.1141442E-2,1.3645999E-1,7.402164E-2,0E0,0E0,3.9757103E-2,0E0,8.772564E-2,2.3520869E-1,9.371024E-3,6.035483E-2,7.0032835E-2,1.2872045E-1,2.1231234E-2,4.519628E-3,1.0509551E-2,0E0,1.870296E-2,8.791864E-3,0E0,0E0,0E0,0E0,0E0,0E0,0E0,0E0,0E0,0E0,0E0,0E0,0E0,0E0,0E0,0E0,0E0,0E0,0E0,0E0,0E0,0E0,0E0,0E0,0E0,0E0,0E0,0E0,0E0,0E0,0E0,0E0,0E0,0E0,0E0,0E0,0E0,0E0,0E0,0E0,0E0,0E0,0E0,0E0,0E0,0E0,0E0,0E0,0E0,0E0,0E0,0E0,0E0,0E0,0E0,0E0,0E0,0E0,0E0,0E0,0E0,0E0,0E0,0E0,0E0,0E0,0E0,0E0,0E0,0E0,0E0,0E0,0E0,0E0,0E0,0E0,0E0,0E0,0E0,0E0,0E0,0E0,0E0,0E0,0E0,0E0,0E0,0E0,0E0,0E0,0E0,0E0,0E0,0E0,0E0,0E0,0E0,0E0,0E0,0E0,0E0,0E0,0E0,0E0,0E0,0E0,0E0,0E0,0E0,0E0,0E0,0E0,0E0,0E0,0E0,0E0,0E0,0E0,0E0,0E0,0E0,0E0,0E0,0E0,0E0,0E0,0E0,0E0,0E0,0E0,0E0,0E0,0E0,0E0,0E0,0E0,0E0,0E0,0E0,0E0,0E0,0E0,0E0,0E0,0E0,0E0,0E0,0E0,0E0,0E0,0E0,0E0],"parents":[2147483647,0,0,1,1,2,2,3,3,4,4,5,5,6,6,7,7,8,8,9,9,10,10,11,11,13,13,14,14,15,15,16,16,17,17,18,18,19,19,20,20,21,21,22,22,23,23,24,24,25,25,26,26,27,27,28,28,29,29,30,30,31,31,32,32,33,33,34,34,36,36,37,37,38,38,39,39,40,40,41,41,42,42,43,43,44,44,45,45,47,47,48,48,49,49,50,50,51,51,52,52,53,53,54,54,55,55,56,56,57,57,58,58,59,59,60,60,62,62,65,65,66,66,67,67,68,68,69,69,70,70,72,72,73,73,74,74,75,75,76,76,77,77,78,78,79,79,81,81,82,82,83,83,84,84,85,85,86,86,87,87,89,89,90,90,91,91,92,92,93,93,95,95,96,96,97,97,98,98,99,99,100,100,103,103,104,104,105,105,106,106,109,109,110,110,111,111,113,113,114,114,115,115,116,116,118,118,119,119,120,120,121,121,122,122,125,125,126,126,127,127,128,128,129,129,130,130,131,131,132,132,135,135,139,139,140,140,141,141,143,143,144,144,147,147,148,148,149,149,150,150,151,151,152,152,153,153,154,154,155,155,156,156,158,158,163,163,164,164,165,165,166,166,167,167,170,170,171,171,172,172,173,173,174,174,179,179,180,180,181,181,186,186,193,193,197,197,199,199,200,200,201,201,202,202,203,203,204,204,207,207,208,208,209,209,210,210,211,211,212,212,213,213,214,214,218,218,222,222,223,223,224,224,227,227,228,228,229,229,230,230,233,233,234,234,235,235,240,240,243,243,244,244,245,245,249,249,250,250,251,251,252,252,253,253,254,254,256,256,257,257,258,258,259,259,260,260,261,261,262,262,269,269,270,270,271,271,273,273,274,274,275,275,276,276,281,281,282,282,283,283,285,285,288,288,289,289,290,290,294,294,295,295,296,296,297,297,299,299,300,300,301,301,302,302,305,305,306,306,308,308,309,309,310,310,311,311,312,312,313,313,314,314,317,317,319,319,320,320,323,323,324,324,325,325,328,328,329,329,331,331,334,334,338,338,342,342,345,345,346,346,347,347,349,349,350,350,351,351,352,352,353,353,354,354,355,355,356,356,357,357,358,358,359,359,360,360,362,362,363,363,364,364,366,366,370,370,372,372,374,374,375,375,377,377,378,378,379,379,381,381,382,382,383,383,384,384,386,386,388,388,389,389,390,390,393,393,395,395,396,396,397,397,398,398,399,399,400,400,401,401,402,402,403,403,405,405,406,406],"right_children":[2,4,6,8,10,12,14,16,18,20,22,24,-1,26,28,30,32,34,36,38,40,42,44,46,48,50,52,54,56,58,60,62,64,66,68,-1,70,72,74,76,78,80,82,84,86,88,-1,90,92,94,96,98,100,102,104,106,108,110,112,114,116,-1,118,-1,-1,120,122,124,126,128,130,-1,132,134,136,138,140,142,144,146,-1,148,150,152,154,156,158,160,-1,162,164,166,168,170,-1,172,174,176,178,180,182,-1,-1,184,186,188,190,-1,-1,192,194,196,-1,198,200,202,204,-1,206,208,210,212,214,-1,-1,216,218,220,222,224,226,228,230,-1,-1,232,-1,-1,-1,234,236,238,-1,240,242,-1,-1,244,246,248,250,252,254,256,258,260,262,-1,264,-1,-1,-1,-1,266,268,270,272,274,-1,-1,276,278,280,282,284,-1,-1,-1,-1,286,288,290,-1,-1,-1,-1,292,-1,-1,-1,-1,-1,-1,294,-1,-1,-1,296,-1,298,300,302,304,306,308,-1,-1,310,312,314,316,318,320,322,324,-1,-1,-1,326,-1,-1,-1,328,330,332,-1,-1,334,336,338,340,-1,-1,342,344,346,-1,-1,-1,-1,348,-1,-1,350,352,354,-1,-1,-1,356,358,360,362,364,366,-1,368,370,372,374,376,378,380,-1,-1,-1,-1,-1,-1,382,384,386,-1,388,390,392,394,-1,-1,-1,-1,396,398,400,-1,402,-1,-1,404,406,408,-1,-1,-1,410,412,414,416,-1,418,420,422,424,-1,-1,426,428,-1,430,432,434,436,438,440,442,-1,-1,444,-1,446,448,-1,-1,450,452,454,-1,-1,456,458,-1,460,-1,-1,462,-1,-1,-1,464,-1,-1,-1,466,-1,-1,468,470,472,-1,474,476,478,480,482,484,486,488,490,492,494,496,-1,498,500,502,-1,504,-1,-1,-1,506,-1,508,-1,510,512,-1,514,516,518,-1,520,522,524,526,-1,528,-1,530,532,534,-1,-1,536,-1,538,540,542,544,546,548,550,552,554,-1,556,558,-1,-1,-1,-1,-1,-1,-1,-1,-1,-1,-1,-1,-1,-1,-1,-1,-1,-1,-1,-1,-1,-1,-1,-1,-1,-1,-1,-1,-1,-1,-1,-1,-1,-1,-1,-1,-1,-1,-1,-1,-1,-1,-1,-1,-1,-1,-1,-1,-1,-1,-1,-1,-1,-1,-1,-1,-1,-1,-1,-1,-1,-1,-1,-1,-1,-1,-1,-1,-1,-1,-1,-1,-1,-1,-1,-1,-1,-1,-1,-1,-1,-1,-1,-1,-1,-1,-1,-1,-1,-1,-1,-1,-1,-1,-1,-1,-1,-1,-1,-1,-1,-1,-1,-1,-1,-1,-1,-1,-1,-1,-1,-1,-1,-1,-1,-1,-1,-1,-1,-1,-1,-1,-1,-1,-1,-1,-1,-1,-1,-1,-1,-1,-1,-1,-1,-1,-1,-1,-1,-1,-1,-1,-1,-1,-1,-1,-1,-1,-1,-1,-1,-1],"split_conditions":[7.5E-1,2.2380953E-1,3.433959E-2,2.5271129E-2,1.0773823E-2,3.4181926E-2,3.936508E-1,2.3429506E-2,4.6826702E-1,5.4317806E-3,5E-1,3.6722966E-2,8.261399E-2,3.4758303E-1,7.5E-1,5.2449852E-2,1.573593E-1,4.6577847E-1,7.720058E-2,6.773071E-2,1.4797764E-1,2.2481963E-1,1.2349089E-1,4.6530746E-2,3.8785762E-3,8.874459E-2,3.8092032E-2,1.3465965E-1,1.02006994E-1,3.9296284E-2,1.5346838E-2,1.6175845E-1,2.0815295E-1,8.97731E-2,4.926554E-1,5.41875E-2,3.0545104E-2,1.3153568E-2,8.328217E-2,6.720678E-3,2.6262626E-1,1.8599205E-1,1.9944097E-1,1.0609781E-1,3.054021E-1,4.3242354E-2,-7.9223275E-2,1.4470977E-1,2.93132E-1,1.7638633E-1,3.6226228E-2,5.9841652E-3,3.0015257E-1,4.2481962E-1,4.8463205E-1,1.9947489E-1,5.004329E-1,1.3809612E-3,1.8001443E-1,1.3769472E-2,5E-1,9.249691E-2,1.2554112E-1,-6.397534E-2,2.8300561E-2,8.7306805E-2,5E-1,5E-1,7.5E-1,5.1156126E-2,2.8474426E-1,9.437312E-3,8.082995E-3,4.890332E-1,5.6616163E-1,3.6659452E-1,8.4919175E-3,2.6318124E-1,7.397176E-2,2.2438672E-1,4.1918453E-2,3.3896893E-1,1.0127048E-3,7.4810915E-2,2.4675325E-1,7.358785E-2,3.3098015E-1,5E-1,1.0729498E-2,2.5E-1,1.776367E-3,4.243867E-1,3.7331465E-1,1.1262743E-1,3.1497285E-2,2.4206349E-1,2.878788E-1,1.7337662E-1,2.7521998E-2,4.496876E-1,1.9357479E-1,5.7782847E-2,-1.5308548E-2,4.7597402E-1,1.8447879E-1,2.9907924E-1,3.1638518E-1,3.499566E-2,-9.954549E-3,1.3527717E-2,2.1690197E-2,1.6387405E-2,3.2327683E-3,1.5126604E-1,2.2647763E-2,2.1485575E-2,3.5853185E-2,1.03497375E-2,1.4610389E-1,2.5E-1,1.8253969E-1,3.2695852E-2,4.4516593E-2,4.294955E-2,-8.235213E-3,5E-1,1.9497992E-2,1.4430015E-1,4.7698125E-1,1.1029276E-1,1.911977E-1,1.3837638E-1,9.092055E-3,2.732074E-2,-4.4841032E-2,2.2314304E-1,2.8977292E-3,5.0462224E-2,5.2048224E-3,3.9682537E-1,1.0721268E-2,3.1365313E-2,-2.852539E-2,3.7787396E-2,3.3766234E-1,6.2604817E-3,2.3608805E-4,1.9056231E-1,2.137303E-1,2.2929293E-1,1.286135E-1,1.5851192E-1,4.736278E-2,8.418283E-2,1.0865562E-1,3.8621202E-2,1.6413568E-1,4.811493E-2,2.49753E-1,-5.3256523E-2,-9.852277E-3,4.926136E-3,-3.685334E-2,2.4920636E-1,4.9368435E-1,5E-1,1.8620831E-1,1.8174604E-1,4.3782987E-2,2.6595615E-2,5.84203E-2,8.072437E-2,2.9487735E-1,2.329221E-1,3.1174543E-1,-4.462377E-2,-1.157506E-2,5.46062E-3,3.575885E-2,4.4820783E-1,1.7492175E-3,1.3223948E-1,-6.447122E-2,-2.1845067E-2,-5.3432915E-2,-1.8401433E-2,1.20004624E-1,-7.2116755E-2,-6.2481747E-3,2.6940182E-2,-3.4953654E-2,4.7875166E-2,4.8507885E-3,2.3183163E-2,-1.3801812E-2,1.38009535E-2,5.155632E-2,8.955412E-3,-7.624978E-2,2.2550029E-1,2.5E-1,1.2298586E-1,1.8924963E-1,2.3412219E-1,9.307359E-2,-2.6913416E-2,2.4384633E-3,1.1803906E-2,2.117976E-2,1.0749007E-1,7.5E-1,1.7424242E-1,1.210354E-1,3.672439E-2,8.614719E-2,-1.9394511E-2,-5.5409003E-2,-2.7895017E-2,5E-1,1.5353234E-2,7.0180915E-2,3.766392E-2,3.0104954E-2,7.768715E-2,7.5E-1,-1.1919494E-2,2.7686441E-2,2.0811874E-3,7.5E-1,2.4554942E-2,3.732325E-2,-4.9259428E-2,-9.478829E-3,7.5E-1,4.6825397E-1,1.4333947E-1,6.3232765E-2,-1.9426713E-2,-7.452341E-2,4.95384E-2,1.0689735E-2,2.8381571E-3,5.774875E-2,8.928825E-2,5.510942E-2,5E-1,7.8312114E-2,-1.3837117E-2,-7.2917864E-2,1.0624194E-1,3.380467E-1,2.8033558E-2,5E-1,5.7575756E-1,2.4145693E-2,-2.3785576E-2,2.4458875E-1,3.9863743E-2,1.3222897E-2,1.6574585E-1,1.7913978E-1,4.4294637E-1,6.6883117E-1,-5.5015165E-2,-1.4288724E-2,-5.46733E-3,-2.0926137E-2,5.2675325E-2,4.926136E-3,4.7597125E-2,2.8881633E-1,4.6443E-1,3.588328E-2,1.2546897E-1,1.5346838E-2,5E-1,1.6009943E-1,2.142042E-3,3.1784616E-2,-6.3535035E-2,-9.127884E-3,2.14562E-1,2.6210642E-1,5E-1,3.7141774E-2,2.867244E-1,3.526711E-2,5.1687867E-3,3.4118947E-1,3.9594844E-2,1.1248197E-1,2.6313664E-2,-2.1896511E-2,-1.4778409E-2,3.4991276E-2,7.200067E-3,1.300559E-1,1.4999264E-2,1.0729845E-2,2.2968705E-1,3.1869493E-2,1.5339106E-1,1.9793776E-1,5.557329E-2,-1.9426713E-2,1.0300826E-2,1.5512265E-1,1.13328565E-2,1.3044733E-1,3.2584246E-3,7.5676665E-2,7.5E-1,7.985027E-2,1.550505E-1,1.0606061E-1,1.9854815E-3,6.94821E-2,1.15440115E-1,-5.3746767E-2,1.193984E-1,1.9618854E-1,-3.977448E-4,9.852272E-3,1.937186E-2,3.452403E-2,1.6594517E-1,-6.9732117E-3,-6.61829E-2,1.2871572E-1,1.1680386E-1,-3.231683E-2,2.0324674E-1,-5.226094E-2,-1.7568305E-2,5E-1,-8.021468E-3,-4.0325306E-2,-2.6872296E-2,5E-1,-1.1070809E-2,-5.966667E-2,4.2010676E-2,2.976912E-1,-4.324903E-2,3.0681835E-3,1.755606E-1,3.2027417E-1,1.0333538E-2,1.8472008E-2,1.5504768E-1,9.0352684E-2,3.7838332E-2,2.5E-1,3.469699E-1,2.0254787E-2,5.9661508E-2,1.0992451E-1,1.2665812E-2,4.6515152E-1,9.209126E-2,2.7129233E-2,4.958157E-2,7.006076E-2,4.0043288E-1,1.6744098E-2,7.869712E-2,2.5541127E-1,6.1008323E-2,1.126261E-2,5.0891146E-2,2.7027416E-1,4.1767836E-2,2.9819626E-1,-6.0386676E-2,4.3391055E-1,5E-1,-4.6305433E-3,2.441631E-1,3.2373738E-1,4.9391648E-1,1.8950205E-2,1.3482408E-2,1.0384828E-1,2.5015965E-1,5.421338E-1,-7.5175166E-2,5.0238097E-1,-4.1984417E-2,2.854512E-2,8.696542E-3,3.1513533E-1,4.138005E-3,-1.3535031E-2,8.4415585E-2,1.7677367E-2,2.5743145E-1,2.443398E-1,2.2222222E-1,1.6639262E-1,5.117829E-2,3.2034633E-1,2.3232323E-1,2.979798E-1,5E-1,-1.0431818E-2,3.9000326E-1,9.88456E-2,-4.926136E-3,-4.5340665E-2,-7.040646E-2,-1.9335702E-2,-4.3121506E-2,-3.1554142E-3,-6.679194E-2,-1.5819311E-2,-1.6117185E-2,-7.143097E-2,7.906676E-2,-3.1108789E-3,-4.502578E-2,-1.1197899E-2,-2.155441E-3,-8.955235E-3,-6.382719E-2,-3.2353878E-3,-3.9592706E-2,-7.670522E-2,-4.3115236E-2,6.325078E-3,-1.0012488E-2,-4.010115E-2,-1.5068182E-2,-7.466488E-2,-5.2719586E-2,-3.309561E-2,-4.2411275E-2,1.416308E-5,-2.503275E-2,-5.9233136E-2,2.289161E-3,-3.16081E-2,-2.4379915E-2,-6.66365E-2,-1.683067E-2,2.8171347E-2,-4.964331E-2,-3.4888822E-3,-5.797401E-2,2.1826329E-4,2.3656024E-2,-5.413119E-2,-5.47531E-2,-6.328637E-2,7.7022896E-3,6.677449E-4,4.926136E-3,-1.840107E-2,-1.593987E-2,-7.32022E-2,-8.408046E-3,1.6074829E-2,-1.8106168E-2,-8.246706E-2,-8.669386E-3,7.9476835E-5,-2.5961727E-3,1.0310666E-2,-3.5369057E-2,-1.0151239E-2,4.992175E-3,3.8914986E-2,-2.1888273E-2,-5.3126533E-2,-5.0850023E-2,-7.9582155E-2,2.3948995E-2,-4.7055457E-2,-1.636336E-2,-6.139636E-2,-2.5450774E-2,6.5044746E-2,3.9251044E-2,-1.5135959E-2,-8.067765E-2,-3.4099773E-2,-7.8804284E-2,-5.092944E-2,4.047502E-2,-4.278133E-2,-5.6003276E-3,-8.3128214E-2,-4.4651378E-2,1.2972116E-2,3.70361E-2,-2.6969539E-2,1.8818513E-2,-4.334092E-2,1.4782819E-2,-6.3547143E-3,-3.401422E-2,-5.8780793E-2,-4.4002343E-2,2.4588829E-2,-3.8740788E-2,-6.3053705E-2,-4.5569483E-3,5.796668E-3,-5.6201972E-2,-2.2265837E-2,-8.504013E-3,-2.8765645E-2,-7.170439E-2,-5.2847166E-2,-3.1787347E-2,-5.8481082E-2,5.731766E-2,-3.5583828E-2,-6.684882E-2,-2.819267E-2,2.1420453E-2,-4.9078237E-2,-1.9390592E-2,-4.9622517E-2,-3.0636653E-2,1.0680063E-3,-5.2055318E-2,5.642985E-2,-1.0053882E-2,-5.6113373E-2,1.08271185E-2,4.59716E-2,-3.8119216E-2,4.024753E-2,2.0138795E-2,-4.943272E-2,-7.698467E-2,-1.777379E-2,-5.7035215E-2,-7.986906E-2,4.9180616E-2,-4.9329247E-2,5.0313476E-2,6.5024304E-3,-6.177849E-2,-1.4673936E-2,-3.7800863E-2,-6.746283E-2,-4.2954087E-3,-4.57918E-2,-3.491061E-2,-6.561686E-2,-1.1314944E-3,2.2515845E-2,-8.053455E-2,-3.540824E-2,-5.091226E-3,-4.462377E-2,1.351124E-2,6.4273655E-2],"split_indices":[5,0,7,9,7,7,0,9,6,8,4,10,0,6,2,6,0,10,0,9,6,0,9,6,7,0,7,6,8,6,9,10,0,6,10,0,7,6,9,8,0,10,6,9,9,6,0,10,8,9,10,8,10,0,0,10,0,8,0,7,1,0,0,0,0,6,3,1,2,9,7,0,7,0,0,0,9,10,9,0,0,10,8,6,0,10,9,4,0,2,7,0,10,6,0,0,0,0,9,6,9,0,0,0,6,6,10,0,0,7,9,8,0,6,8,9,7,0,0,5,0,10,0,0,0,3,7,0,6,8,0,10,7,0,0,9,0,0,0,0,7,10,0,10,0,0,0,6,9,0,8,10,7,6,9,10,10,0,7,0,0,0,0,0,10,1,9,0,0,0,9,9,0,8,9,0,0,0,0,6,8,7,0,0,0,0,7,0,0,0,0,0,0,6,0,0,0,7,0,10,5,6,0,10,0,0,0,7,7,10,2,0,9,0,0,0,0,0,3,0,0,0,8,7,2,0,0,7,2,9,6,0,0,2,0,9,0,0,0,0,7,0,0,10,7,3,0,0,0,8,6,9,1,0,9,0,0,8,7,9,7,6,0,0,0,0,0,0,0,8,10,0,0,0,9,1,8,0,0,0,0,7,8,3,0,0,0,0,8,9,0,0,0,0,7,7,6,7,0,10,7,0,8,0,0,7,0,0,0,7,8,2,10,0,0,0,0,0,0,9,8,0,0,7,8,0,0,0,0,10,0,0,0,0,1,0,0,0,2,0,0,0,0,0,0,10,0,9,0,6,10,8,5,10,7,10,8,7,0,10,6,0,8,0,7,0,0,0,0,0,0,0,0,0,0,3,0,6,0,6,0,6,8,10,10,0,0,0,9,9,8,0,0,0,0,0,7,0,6,7,0,0,0,1,0,6,0,0,0,0,0,0,0,0,0,0,0,0,0,0,0,0,0,0,0,0,0,0,0,0,0,0,0,0,0,0,0,0,0,0,0,0,0,0,0,0,0,0,0,0,0,0,0,0,0,0,0,0,0,0,0,0,0,0,0,0,0,0,0,0,0,0,0,0,0,0,0,0,0,0,0,0,0,0,0,0,0,0,0,0,0,0,0,0,0,0,0,0,0,0,0,0,0,0,0,0,0,0,0,0,0,0,0,0,0,0,0,0,0,0,0,0,0,0,0,0,0,0,0,0,0,0,0,0,0,0,0,0,0,0,0,0,0,0,0,0,0,0,0,0,0,0,0,0,0,0,0,0,0],"split_type":[0,0,0,0,0,0,0,0,0,0,0,0,0,0,0,0,0,0,0,0,0,0,0,0,0,0,0,0,0,0,0,0,0,0,0,0,0,0,0,0,0,0,0,0,0,0,0,0,0,0,0,0,0,0,0,0,0,0,0,0,0,0,0,0,0,0,0,0,0,0,0,0,0,0,0,0,0,0,0,0,0,0,0,0,0,0,0,0,0,0,0,0,0,0,0,0,0,0,0,0,0,0,0,0,0,0,0,0,0,0,0,0,0,0,0,0,0,0,0,0,0,0,0,0,0,0,0,0,0,0,0,0,0,0,0,0,0,0,0,0,0,0,0,0,0,0,0,0,0,0,0,0,0,0,0,0,0,0,0,0,0,0,0,0,0,0,0,0,0,0,0,0,0,0,0,0,0,0,0,0,0,0,0,0,0,0,0,0,0,0,0,0,0,0,0,0,0,0,0,0,0,0,0,0,0,0,0,0,0,0,0,0,0,0,0,0,0,0,0,0,0,0,0,0,0,0,0,0,0,0,0,0,0,0,0,0,0,0,0,0,0,0,0,0,0,0,0,0,0,0,0,0,0,0,0,0,0,0,0,0,0,0,0,0,0,0,0,0,0,0,0,0,0,0,0,0,0,0,0,0,0,0,0,0,0,0,0,0,0,0,0,0,0,0,0,0,0,0,0,0,0,0,0,0,0,0,0,0,0,0,0,0,0,0,0,0,0,0,0,0,0,0,0,0,0,0,0,0,0,0,0,0,0,0,0,0,0,0,0,0,0,0,0,0,0,0,0,0,0,0,0,0,0,0,0,0,0,0,0,0,0,0,0,0,0,0,0,0,0,0,0,0,0,0,0,0,0,0,0,0,0,0,0,0,0,0,0,0,0,0,0,0,0,0,0,0,0,0,0,0,0,0,0,0,0,0,0,0,0,0,0,0,0,0,0,0,0,0,0,0,0,0,0,0,0,0,0,0,0,0,0,0,0,0,0,0,0,0,0,0,0,0,0,0,0,0,0,0,0,0,0,0,0,0,0,0,0,0,0,0,0,0,0,0,0,0,0,0,0,0,0,0,0,0,0,0,0,0,0,0,0,0,0,0,0,0,0,0,0,0,0,0,0,0,0,0,0,0,0,0,0,0,0,0,0,0,0,0,0,0,0,0,0,0,0,0,0,0,0,0,0,0,0,0,0,0,0,0,0,0,0,0,0,0,0,0,0,0,0,0,0,0,0,0,0,0,0,0,0,0,0,0,0,0,0,0,0,0,0],"sum_hessian":[4.982E3,3.544E3,1.438E3,1.593E3,1.951E3,1.019E3,4.19E2,1.4E2,1.453E3,1.96E2,1.755E3,1.018E3,1E0,3.87E2,3.2E1,1.23E2,1.7E1,1.414E3,3.9E1,4.5E1,1.51E2,1.138E3,6.17E2,2E1,9.98E2,3.26E2,6.1E1,1.6E1,1.6E1,1.6E1,1.07E2,8E0,9E0,1.402E3,1.2E1,1E0,3.8E1,3.2E1,1.3E1,9.9E1,5.2E1,5E0,1.133E3,3.89E2,2.28E2,5E0,1.5E1,1.8E1,9.8E2,1.9E1,3.07E2,7E0,5.4E1,5E0,1.1E1,1.3E1,3E0,1.1E1,5E0,6E1,4.7E1,3E0,5E0,8E0,1E0,3.36E2,1.066E3,3E0,9E0,1.4E1,2.4E1,1E0,3.1E1,5E0,8E0,4E0,9.5E1,1.4E1,3.8E1,3E0,2E0,6.87E2,4.46E2,3.34E2,5.5E1,2.2E2,8E0,4E0,1E0,8E0,1E1,9.51E2,2.9E1,1.6E1,3E0,7E0,3E2,2E0,5E0,3.6E1,1.8E1,4E0,1E0,4E0,7E0,7E0,6E0,2E0,1E0,3E0,8E0,4E0,1E0,3.2E1,2.8E1,1.4E1,3.3E1,1E0,4E0,3.22E2,1.4E1,6.08E2,4.58E2,2E0,1E0,5E0,4E0,3E0,1.1E1,2.2E1,2E0,2E1,1.1E1,4E0,1E0,7E0,1E0,3E0,1E0,1E1,8.5E1,1.2E1,2E0,3.4E1,4E0,2E0,1E0,6.52E2,3.5E1,4.3E1,4.03E2,3.2E1,3.02E2,5E0,5E1,6.9E1,1.51E2,3E0,5E0,3E0,1E0,1E0,7E0,3E0,7E0,8.9E2,6.1E1,2.5E1,4E0,2E0,1.4E1,4E0,3E0,2.31E2,6.9E1,1E0,1E0,1E0,4E0,2.1E1,1.5E1,1.4E1,4E0,3E0,1E0,2E0,5E0,6E0,1E0,2E0,4E0,2E0,1E0,7E0,1E0,1E0,3E0,2.1E1,1.1E1,1.2E1,1.6E1,1.2E1,2E0,2.8E1,5E0,3E0,1E0,2.18E2,1.04E2,1E1,4E0,6E0,6.02E2,2E0,4.56E2,2E0,3E0,1E0,3E0,1E0,2E0,2E0,9E0,1.7E1,5E0,1E0,1E0,1.7E1,3E0,6E0,5E0,6E0,1E0,8E0,2E0,8.4E1,1E0,1E0,1.1E1,1E0,3.3E1,1E0,3E0,6.25E2,2.7E1,3.4E1,1E0,1E0,4.2E1,3.7E2,3.3E1,2.4E1,8E0,2.35E2,6.7E1,1E0,4E0,6E0,4.4E1,1.3E1,5.6E1,1.07E2,4.4E1,4E0,1E0,1E0,2E0,6E0,1E0,3.75E2,5.15E2,6E1,1E0,6E0,1.9E1,4E0,1E1,2E0,2E0,2E0,1E0,2.18E2,1.3E1,6.7E1,2E0,2E1,1E0,1E0,1.4E1,9E0,5E0,4E0,1E0,1E0,6E0,1.2E1,9E0,9E0,3E0,9E0,7E0,2E0,1E1,1E0,1E0,2.5E1,3E0,1E0,4E0,3.5E1,1.83E2,4E1,6.4E1,4E0,6E0,2E0,2E0,4E0,2E0,3.4E2,2.62E2,1E0,1E0,3.1E1,4.25E2,2E0,1E0,5E0,4E0,1.4E1,3E0,3E0,2E0,1E0,1.6E1,1E0,2E0,2E0,4E0,1E0,4E0,5E0,3E0,1E0,1E0,8.1E1,3E0,3.2E1,1E0,1.48E2,4.77E2,2E1,7E0,1.7E1,1.7E1,3.47E2,2.3E1,2.6E1,7E0,5E0,1.9E1,2E0,6E0,2.2E2,1.5E1,1E0,6.6E1,3E0,1E0,3E0,3E0,3E0,4.1E1,6E0,7E0,5.5E1,1E0,1.04E2,3E0,4.3E1,1E0,1.84E2,1.91E2,4.31E2,8.4E1,2.1E1,3.9E1,1E0,5E0,6E0,1.3E1,2E0,2E0,9E0,1E0,2.08E2,1E1,2E0,1.1E1,4E1,2.7E1,1.8E1,2E0,1.3E1,1E0,4E0,5E0,1E0,4E0,5E0,1E0,8E0,4E0,7E0,2E0,2E0,7E0,4E0,5E0,6E0,1E0,1E0,1E0,9E0,1E0,4E0,2.1E1,2E0,1E0,1E0,3E0,1E0,3.4E1,1.49E2,3.4E1,1.9E1,2.1E1,1.8E1,4.6E1,2E0,2E0,2E0,4E0,1E0,3E0,3.34E2,6E0,2.6E2,2E0,4E0,2.7E1,1.81E2,2.44E2,1E0,1E0,1E0,3E0,1E0,1.3E1,2E0,1E0,1E0,1.5E1,2E0,2E0,1E0,2E0,6E1,2.1E1,2E0,1E0,9E0,2.3E1,1.28E2,2E1,3E0,4.74E2,1.1E1,9E0,3E0,4E0,3E0,1.4E1,6E0,1.1E1,1.8E1,3.29E2,4E0,1.9E1,1E0,2.5E1,6E0,1E0,3E0,2E0,1E0,1.8E1,3E0,3E0,1.68E2,5.2E1,6E0,9E0,1.4E1,5.2E1,1E0,2E0,1.4E1,2.7E1,6E0,1E0,3.5E1,2E1,8.6E1,1.8E1,2E0,1E0,3.7E1,6E0,2E0,1.82E2,9.2E1,9.9E1,3.92E2,3.9E1,8.2E1,2E0,1.2E1,2.7E1,2E0,3E0,3E0,3E0,1E0,1.2E1,7E0,2E0,1.84E2,2.4E1,2E0,8E0,1E0,1E0,6E0,5E0,1.9E1,2.1E1,1.2E1,1.5E1,1.3E1,5E0,1E0,1E0,1E1,3E0,3E0,1E0,1E0,4E0],"tree_param":{"num_deleted":"0","num_feature":"11","num_nodes":"559","size_leaf_vector":"0"}},{"base_weights":[-1.0613077E-1,-1.1214087E-1,-9.1251045E-2,-1.203232E-1,-1.04714036E-1,-8.183243E-2,-1.06687695E-1,-9.906767E-2,-1.23677365E-1,-7.000367E-2,-1.08017504E-1,-8.97641E-2,-4.8073895E-2,-1.02824554E-1,-1.6919118E-1,-1.082397E-1,-5.7001192E-2,-1.2526238E-1,-8.0470145E-2,-1.1790932E-1,-5.4741286E-2,2.2297516E-1,-1.0834318E-1,-1.4559324E-1,-8.506117E-2,-1.2371232E-2,-8.322398E-2,-1.04168035E-1,2.8060662E-2,3.5061017E-2,-1.7744336E-1,-1.20352E-1,-6.240439E-2,1.664529E-1,-6.60688E-2,-1.1847642E-1,-1.412043E-1,1.2297843E-1,-1.0373996E-1,-1.4491646E-1,-4.5066882E-2,1.2099632E-1,-6.293542E-2,-1.1603678E-1,-9.4428174E-2,-4.30799E-2,-1.6741666E-1,5.2873954E-2,-8.680267E-2,-8.654266E-2,1.2540021E-2,4.0654697E-2,-1.2080948E-1,1.7585903E-3,-1.0565156E-1,1.4369984E-1,-6.568389E-2,-2.315403E-1,-1.3678496E-1,2.2272296E-2,-1.2748936E-1,9.494919E-2,-1.2130241E-1,-7.8053154E-2,7.0291996E-2,-1.0376495E-1,-1.2800159E-1,-1.2840515E-1,-1.7047107E-1,3.117898E-1,-4.937472E-2,-1.5738727E-1,-1.808201E-2,-1.7058551E-1,-8.973833E-2,6.616989E-2,-7.3931225E-2,1.8170893E-1,-2.8595328E-4,-3.0612976E-3,-8.603381E-2,-1.1011964E-1,-1.416892E-1,-8.314643E-2,-1.1128692E-1,-7.671021E-2,1.466116E-1,-1.7475003E-1,7.762593E-2,1.968427E-1,-5.1917538E-2,4.8288435E-2,-8.8315494E-2,4.6827227E-2,-1.5190375E-1,-1.0662727E-1,3.081529E-2,-1.3689548E-1,1.3920803E-1,-1.6308971E-1,-2.691405E-2,-7.445821E-2,6.2380314E-2,-1.0669285E-1,1.8983534E-2,-1.5036918E-2,-7.75539E-2,-7.9659306E-2,-1.9140686E-1,-4.0560924E-2,9.524575E-2,7.078421E-2,-1.3080376E-1,1.6758004E-1,-1.7880335E-1,-2.1087237E-1,-1.1702956E-2,-1.9090662E-2,-1.0906793E-1,1.508246E-1,-6.8270713E-3,-1.1098842E-1,-6.1945245E-2,-5.8792617E-2,-1.310715E-1,-1.1191979E-1,-1.5082674E-1,-1.7299758E-1,-1.2586777E-2,2.7914762E-2,-8.44428E-2,-1.7783348E-1,-4.5963485E-2,-7.4683785E-2,9.7704686E-2,-1.8192442E-1,-8.541824E-2,-4.052823E-2,-1.4068481E-1,9.76783E-3,-1.1119766E-1,-2.1539569E-2,2.1110639E-2,-7.2091736E-2,9.3785405E-2,-9.7025916E-2,1.1584031E-1,-1.1074089E-1,2.213974E-1,-1.1210526E-1,-1.6987027E-1,-7.802083E-2,-1.6461371E-1,-1.3029006E-1,-7.998104E-2,-1.5942767E-2,-1.342891E-1,-1.4031385E-2,-1.8206921E-1,9.0465605E-2,-9.848729E-2,1.19614124E-1,-5.2940786E-2,-9.1097206E-2,-1.4350034E-2,1.18240625E-1,-5.4146323E-2,3.9726447E-2,-1.8444121E-1,7.7281356E-2,-1.3927601E-1,1.1928955E-1,7.570474E-3,-2.0435472E-1,1.6765961E-1,3.0850148E-1,6.49915E-2,-1.852026E-1,1.5196663E-2,-1.492346E-1,1.7841086E-2,-1.567033E-2,-8.883073E-2,-1.549077E-2,8.572078E-2,-1.07706346E-1,1.4575953E-2,1.2697163E-1,-3.97564E-2,-1.3606983E-1,1.5247288E-2,3.0810237E-3,-5.2241668E-2,1.459961E-1,2.9663602E-2,3.1532425E-2,-1.3336639E-1,2.8011265E-1,-7.124703E-2,-2.2213124E-1,-1.5365265E-2,9.624787E-3,-1.5514567E-1,-6.316042E-2,8.168094E-2,-1.197363E-1,7.882056E-2,1.2355387E-2,-2.2595994E-2,-1.13187365E-1,2.7718477E-2,7.639611E-2,-8.4697686E-2,-7.762918E-2,2.1547894E-1,-1.3230564E-1,6.372258E-3,-1.15660295E-1,2.6198262E-1,-9.736667E-2,-1.6530044E-1,1.6709104E-2,-1.7473218E-1,-5.8975063E-2,4.0094897E-2,-2.0066068E-2,-1.0659813E-1,-1.8529895E-1,6.689131E-4,-8.7221965E-2,8.016445E-2,2.7594917E-2,-1.3457139E-1,1.0343716E-2,1.606395E-1,-4.9776852E-2,-1.8780804E-1,-2.272749E-2,-9.873933E-2,-6.365284E-2,-7.271558E-3,-3.1367287E-2,-1.6017237E-1,4.918434E-2,-5.4240853E-2,-1.3246734E-1,8.210227E-3,-1.1313169E-1,8.186244E-2,1.199726E-1,-5.0954267E-2,-1.0247761E-1,8.432898E-2,1.8841255E-1,-8.722432E-2,-1.3186443E-1,-1.038173E-1,-1.2695724E-1,2.095249E-2,-1.7239238E-1,4.1170135E-2,-8.0658875E-2,1.2013567E-1,-2.1157679E-1,-1.0268576E-1,-1.5055726E-1,-7.129798E-2,1.21009745E-1,-9.754363E-2,-6.7739345E-2,5.8433592E-2,-6.0072288E-2,-1.6374288E-1,-4.3535464E-2,2.2488385E-2,-1.8646106E-1,-1.0017753E-3,-3.1024456E-2,-1.3312103E-1,1.4253896E-1,1.3957381E-2,1.3957381E-2,-7.9892635E-2,-9.333399E-2,-4.5563797E-3,1.0629467E-1,-2.9462386E-2,-2.7914777E-2,1.6175817E-1,-1.3545349E-2,7.313502E-2,-2.42145E-1,-7.676262E-2,-5.8388352E-2,-1.5650718E-1,-2.953741E-2,1.7218046E-1,-1.03128314E-1,2.952097E-2,-2.228731E-1,-4.66222E-2,1.348223E-1,-1.5671207E-2,-5.192197E-2,-2.022715E-1,-9.3060024E-2,9.259001E-2,2.0068422E-2,-1.8710889E-1,5.5107377E-2,-8.261948E-2,-5.255076E-2,-1.1017104E-1,-2.1665296E-2,4.595855E-2,-6.0470954E-2,1.1193633E-2,-4.361853E-3,-1.5729418E-1,4.9304843E-2,-6.0491465E-2,5.9468716E-2,-1.2170076E-2,-1.5515116E-1,-1.10316865E-1,5.539894E-2,3.5891834E-1,-1.5781371E-1,9.4226524E-2,-7.091529E-2,-2.3866814E-1,-2.308532E-2,5.7085816E-2,-1.0378519E-1,-1.2008916E-2,1.1012584E-2,9.6594885E-2,-1.3730414E-1,-2.2004077E-2,2.1956768E-3,-1.1571035E-1,1.2684481E-1,-5.3555895E-2,2.4396938E-1,-4.80521E-2,-1.0551778E-1,-1.4120648E-2,4.5583617E-2,-1.091362E-1,-1.4917289E-1,-1.20344855E-1,9.526047E-2,-6.1886966E-2,-1.3281184E-1,-6.022673E-2,-1.142582E-1,3.2547064E-2,-1.6713832E-1,1.8919408E-3,-1.8293804E-1,-1.3999598E-1,-2.8311245E-2,-1.9089359E-1,1.074621E-1,-8.809297E-2,-1.499789E-1,-5.3763375E-2,-3.9651345E-2,8.016445E-2,-5.130081E-2,-1.9436237E-1,-1.4861017E-2,2.1193425E-4,-1.4821814E-1,-2.6856676E-2,-1.5543321E-1,6.320658E-2,2.1144966E-2,1.1529244E-1,8.0976516E-2,1.8746966E-1,-2.1823667E-2,-1.187619E-1,1.6234338E-2,1.1025913E-1,-1.0608341E-1,-1.5400109E-1,3.7275816E-3,-1.0576943E-1,-1.5393142E-1,-6.697867E-2,-6.68729E-2,1.9136515E-1,-1.1703233E-2,-1.7555232E-1,-8.193127E-2,1.7915949E-1,1.4848207E-1,3.3750385E-3,-2.270743E-1,-2.8300859E-2,-1.3931283E-1,4.1424036E-2,-1.5988787E-1,-6.863754E-2,6.395657E-3,-1.2900178E-1,-4.1057684E-2,2.9334158E-1,-4.71404E-2,-1.3751416E-1,-4.542464E-2,-1.8885136E-1,-8.377808E-2,-1.1680204E-1,8.1583135E-2,-1.11661226E-1,4.4493955E-2,-5.8181915E-2,-8.686153E-2,-2.7942923E-1,-1.4557958E-2,-1.3411462E-1,-1.10600695E-1,3.4350585E-2,2.0446536E-1,-4.3049343E-2,-1.4252691E-1,1.0044987E-2,-9.95042E-2,5.0796114E-2,1.6257067E-1,-1.9598156E-3,-7.377559E-2,6.7025036E-2,-1.789293E-1,1.3472845E-1,-2.1059175E-1,-8.306166E-2,-1.1490295E-1,-2.4687082E-2,2.4956495E-2,1.0681569E-1,2.9844455E-2,1.7913121E-1,-1.734748E-1,3.577566E-2,-1.1108607E-1,5.084707E-2,-7.857195E-2,-1.1558345E-1,1.4084563E-2,5.485326E-2,-6.905781E-2,-1.8414792E-1,8.8484585E-4,6.5149896E-2,-1.6307805E-1,-6.164466E-2,-7.732944E-2,-1.5542522E-1,-1.16476126E-1,1.0103196E-2,-7.843466E-2,1.766179E-2,7.601579E-2,-1.8782035E-2,-3.984483E-2,-1.2579416E-1,-5.942402E-2,5.5214196E-2,1.1055529E-2,-1.452749E-1,3.5731524E-2,-4.537086E-2,8.045289E-2,-3.7298877E-2,-6.9104835E-2,-1.2286391E-1,-1.24864474E-1,8.018492E-2,-1.1898507E-1,6.254256E-2,-1.1885237E-1,-2.5675803E-2,7.7253245E-2,-6.331496E-2,1.16380416E-1,-6.400666E-2,-1.4792593E-1,4.4576127E-2,-2.0672345E-1,-1.3772446E-1,2.2748103E-2,-1.2621076E-1,1.155851E-1,2.7305603E-2,-8.765911E-2,7.7147335E-3,4.417845E-2,-1.3882895E-1,-2.182804E-2,-1.8091975E-1,-5.3411786E-2,-1.6631553E-1,-4.5657158E-4,4.3700468E-2,-1.6906705E-1,-5.3563386E-2,-1.6698845E-1,-2.0945047E-1,-1.5772316E-1,-3.0451724E-2,-1.7065363E-1,2.121611E-2,7.4444115E-2,1.4746994E-2,1.0087831E-1,9.1290474E-4,-5.478133E-2,3.6743045E-2,-2.1970195E-1,-9.757048E-2,-1.24814674E-1,-3.1444885E-2,-1.7780913E-1,-1.3116516E-1,-6.363141E-2,1.24228254E-1,1.3949772E-2,-1.0706819E-1,2.20673E-2,-1.6016585E-1,4.3591805E-2,-1.4311409E-1,4.8040763E-2,-9.015211E-2,-1.3377742E-1,1.16222575E-1,-1.9781734E-1,-1.3832262E-1,-9.0967745E-2,-4.083413E-2,-2.4733663E-2,-1.6851635E-1,-4.492164E-2,-1.6558582E-1,1.1151884E-1,-1.3383634E-1,-2.8071007E-2,1.01623185E-1,-1.569523E-1,-6.8084046E-2,-1.21189564E-1,5.2760094E-2,-6.78575E-2,1.5627779E-1,-1.6077724E-1,-1.1015702E-3,-2.2271334E-1,-1.5699698E-1,-8.850885E-2,1.2944204E-1,-1.53296E-1,-7.770712E-2,-2.7403275E-2,1.5880796E-1,-2.007766E-1,-1.8036682E-2,6.392824E-2,-3.6055878E-2,1.3818152E-2,-8.933346E-2,7.683754E-3,-2.4533113E-2,4.849021E-2,3.0356646E-3,2.1851073E-1,5.307387E-2,1.8084049E-4,-1.7110462E-1,8.551964E-2,-7.045216E-2,1.1518136E-2,-1.2401229E-1,8.117317E-3,1.319207E-1,-2.2763693E-1,-1.2887096E-1,-2.5346562E-2,-9.385117E-2,-5.0197467E-2,6.2102593E-2,-1.401864E-1,1.4815924E-1,1.4906582E-1,-5.7541102E-2,-1.8027517E-1,-3.5988495E-2,-1.9598557E-1,-1.1172298E-1],"categories":[],"categories_nodes":[],"categories_segments":[],"categories_sizes":[],"default_left":[true,true,true,true,true,true,true,true,true,true,true,true,true,true,true,true,true,true,true,true,true,false,true,true,true,true,true,true,true,false,true,true,true,false,true,true,true,true,true,true,true,true,true,true,true,true,true,true,true,true,true,true,true,true,true,false,true,false,true,true,true,true,true,true,true,true,true,true,true,false,true,true,true,true,true,false,true,false,true,true,true,true,